<?xml version="1.0"?>
<opencv_storage>
<my_nn type_id="opencv-ml-ann-mlp">
  <layer_sizes type_id="opencv-matrix">
    <rows>1</rows>
    <cols>3</cols>
    <dt>i</dt>
    <data>
      265 10 30</data></layer_sizes>
  <activation_function>SIGMOID_SYM</activation_function>
  <f_param1>1.</f_param1>
  <f_param2>1.</f_param2>
  <min_val>-9.4999999999999996e-001</min_val>
  <max_val>9.4999999999999996e-001</max_val>
  <min_val1>-9.7999999999999998e-001</min_val1>
  <max_val1>9.7999999999999998e-001</max_val1>
  <training_params>
    <train_method>RPROP</train_method>
    <dw0>1.0000000000000001e-001</dw0>
    <dw_plus>1.2000000000000000e+000</dw_plus>
    <dw_minus>5.0000000000000000e-001</dw_minus>
    <dw_min>1.1920928955078125e-007</dw_min>
    <dw_max>50.</dw_max>
    <term_criteria><epsilon>1.0000000000000000e-002</epsilon>
      <iterations>1000</iterations></term_criteria></training_params>
  <input_scale>
    8.5373980858234297e+000 -3.0241324567557677e+000
    8.0388452300656574e+000 -3.0739089745235506e+000
    7.5020927932354855e+000 -2.9070113167014640e+000
    5.8443073203444769e+000 -2.4053819897725086e+000
    4.0314012825294014e+000 -2.3763821387843578e+000
    4.1389188565385231e+000 -3.2355951078312937e+000
    4.2478212780194129e+000 -3.5421244713746596e+000
    4.4715652660853529e+000 -3.5284643243605864e+000
    5.5101987505327479e+000 -3.9726392230095060e+000
    5.8229062652191734e+000 -4.1861427888389064e+000
    5.6736866504260375e+000 -4.1622263423588386e+000
    5.6858155659989604e+000 -4.3659058999818985e+000
    5.5759985268858685e+000 -4.6244855440240071e+000
    4.5442414388040060e+000 -3.7308335859544903e+000
    4.9241794189268484e+000 -3.7116224089726879e+000
    5.2393688900794340e+000 -2.8818984263549385e+000
    6.9130772746544551e+000 -3.2270695131691668e-001
    1.1473339686978271e+001 -3.0600641765982584e-001
    1.3126883593788049e+001 -3.0685290533474568e-001
    1.2417111609706000e+001 -3.1390057682929801e-001
    6.8028298974450285e+000 -5.2576713377304163e+000
    6.9305716129575305e+000 -5.8187094658664584e+000
    6.7270030172134518e+000 -5.7564502247523777e+000
    6.2177858516883067e+000 -4.9605505717669995e+000
    6.6271259105515643e+000 -4.8897164656497738e+000
    6.4918178560997992e+000 -4.4901206584380988e+000
    6.6203324751345090e+000 -4.5281809371512667e+000
    6.6490449974105843e+000 -4.5077169315454526e+000
    5.3348538129436012e+000 -3.6776233565453116e+000
    5.3581598186313038e+000 -3.9446625391839709e+000
    5.3504296547454331e+000 -3.9312715480632088e+000
    5.5236653911137079e+000 -3.9885445452740820e+000
    5.9254516518701905e+000 -4.0741124293670437e+000
    6.1156953344898737e+000 -4.0318151663045283e+000
    6.2177387673268489e+000 -4.1497170830835293e+000
    6.0366438870757690e+000 -4.1035494334896541e+000
    5.2337668321222433e+000 -3.7787772437083293e+000
    4.9774711476025946e+000 -4.0056526757336428e+000
    4.9760064164681701e+000 -3.8003265991412980e+000
    5.5099187836384100e+000 -3.9345278285443914e+000
    1.8044546654109324e+000 -8.1213905954411558e-001
    3.4206488003255681e-001 -2.4469618839884841e-001
    4.5092013478458148e-002 -1.8460173029109467e-001
    1.6680930135541564e-002 -5.7316769777205112e-001
    1.0402189840538398e-002 -1.0399244362044060e+000
    9.8969684874827355e-003 -1.3458844672344441e+000
    1.0062079195054240e-002 -1.7454633295766371e+000
    1.0891017814404295e-002 -2.1135553900719581e+000
    1.0162394483082119e-002 -1.6314808061118558e+000
    1.0945417197526815e-002 -1.0859941808383684e+000
    1.1842464033193624e-002 -7.5985908567081706e-001
    1.9939631477634646e-002 -4.2616133386104094e-001
    1.0095895788524885e-001 -7.8690812181796049e-002
    3.4497178145777596e-001 -5.0897475952786618e-002
    4.6316634246957724e+000 -1.5185781720314009e-001
    1.6885326113205203e+000 -8.8578759938125662e-001
    1.9573312844639848e-001 -2.7303458751986437e-001
    3.1499930495463707e-002 -2.5246889151207719e-001
    1.2508547984691146e-002 -8.2528454222095637e-001
    1.1162638751773443e-002 -1.8602845242597816e+000
    1.2196481087021748e-002 -2.3287826480912464e+000
    1.1895120390857290e-002 -2.1000471637289522e+000
    1.1461266609668888e-002 -1.9847634240093970e+000
    1.1281170361412187e-002 -2.0366127184357494e+000
    1.1657649786048730e-002 -2.0443104843886468e+000
    1.1166697503643765e-002 -1.3507876348371939e+000
    1.5898038136293157e-002 -5.9050194406979784e-001
    8.5530884613672545e-002 -1.3575319241961439e-001
    9.9966146449485205e-001 -9.0878314954077458e-002
    3.6863680539184993e+000 -1.8129678953697537e-001
    1.3198589766473610e+000 -7.4156011057534288e-001
    1.9030503235861204e-001 -2.1497945533208337e-001
    2.9222406737554781e-002 -2.7519580950016193e-001
    1.1476228819150098e-002 -9.5452806318445160e-001
    1.1089761447467195e-002 -1.9968842580160602e+000
    1.1869023457441993e-002 -1.7669102133589878e+000
    1.1543005980004788e-002 -9.6665363938663040e-001
    1.2100033428461559e-002 -7.9631203601704015e-001
    1.1786962971204974e-002 -1.1254880842445214e+000
    1.0321382420655383e-002 -1.6761094418281874e+000
    1.0532316064645778e-002 -1.5903954222087029e+000
    1.4885108215080907e-002 -7.1807891642648136e-001
    5.1453301692485118e-002 -1.4048054947933344e-001
    2.3255752622308958e+000 -1.2477005877840872e-001
    4.0922242349569613e+000 -1.5246737090003581e-001
    1.3464289570228658e+000 -8.1668641655485308e-001
    1.7250766438113949e-001 -1.9924506690817151e-001
    2.9265992449013178e-002 -2.7390526464948250e-001
    1.0974965835459259e-002 -9.4168805217694684e-001
    1.0376019117829312e-002 -1.6160765752387833e+000
    1.1345451504643462e-002 -1.0426825006510407e+000
    1.1848411626562111e-002 -5.3974724022224152e-001
    1.2616373262811899e-002 -4.7120555937306852e-001
    1.2390884379804287e-002 -5.5280702651836233e-001
    1.0276970412484463e-002 -1.1531649125138304e+000
    9.9711753077128401e-003 -1.4431158683426484e+000
    1.3216325706943238e-002 -7.3688401989293650e-001
    4.0140319902146997e-002 -1.4249514457066192e-001
    3.6115283368291634e-001 -8.0734612596777125e-002
    4.0458409038431498e+000 -1.5676879806247673e-001
    1.6147078448089767e+000 -9.6497443482622891e-001
    1.7680418558567301e-001 -2.5084587880411435e-001
    3.0450246817269419e-002 -2.5394870520035717e-001
    1.0688880562433011e-002 -8.5820082178914459e-001
    9.5558986634668702e-003 -1.3147976636471712e+000
    1.1305322606765615e-002 -9.0125829639509136e-001
    1.1920599458773148e-002 -5.0402284239173323e-001
    1.3007789691503728e-002 -5.0869956675819572e-001
    1.1433356764587689e-002 -5.4004293486861732e-001
    1.0477516814157685e-002 -9.4508450846034853e-001
    9.4317224337966288e-003 -1.1585697315696770e+000
    1.3060919561986011e-002 -6.8208754588839604e-001
    3.8694627252896463e-002 -1.4757012092423555e-001
    1.8600814843604171e-001 -7.0134219902114089e-002
    4.4996077613827108e+000 -1.6093977089893452e-001
    1.8217828685894513e+000 -8.2265306882653311e-001
    2.0714387883680635e-001 -1.7040748303713427e-001
    3.1765823245342745e-002 -2.3679977328346408e-001
    1.0954308236363758e-002 -8.0137866275204783e-001
    9.3097547028873871e-003 -1.3012706167348811e+000
    1.0415080781009728e-002 -1.0003599720645244e+000
    1.1274290408307889e-002 -6.0894609981802461e-001
    1.2442957756464406e-002 -6.2021932209047470e-001
    1.0529680106777987e-002 -7.1765026921485986e-001
    1.0093254798320954e-002 -9.9887121442995974e-001
    9.2435651883795954e-003 -1.0255260311232945e+000
    1.3701361314222562e-002 -6.0949617566055025e-001
    4.2016912660309137e-002 -1.3600705558597831e-001
    6.5939712481863777e-001 -7.9599354858881755e-002
    4.5742676087566325e+000 -1.7042725815039614e-001
    1.8735416777621099e+000 -7.5109196917735854e-001
    2.1554493403238600e-001 -1.4776552854679220e-001
    3.3184979585031207e-002 -2.2759653658765069e-001
    1.1587072669153131e-002 -7.4317860873672614e-001
    9.2345303073207707e-003 -1.2907010802862571e+000
    9.2349890286189049e-003 -1.1573877308087603e+000
    9.6451208220103887e-003 -9.7346723908943300e-001
    9.9131602484191245e-003 -1.0338643132404923e+000
    9.3873946980842279e-003 -1.1840288755334762e+000
    9.6516292888296148e-003 -1.2469588594305934e+000
    9.8943723248359119e-003 -1.0073680175014756e+000
    1.4749620685157403e-002 -5.3450339281711978e-001
    4.5319586020867393e-002 -1.3433778926304804e-001
    3.0054532537895390e-001 -6.4050643113547551e-002
    3.9020861896838390e+000 -1.4538324104634273e-001
    1.6197998244931600e+000 -8.0386489054578580e-001
    2.5393112013878472e-001 -2.8307075687602229e-001
    3.5501002124845325e-002 -2.2353462589787110e-001
    1.2344302945725954e-002 -7.0274221791920377e-001
    9.4434639408717009e-003 -1.2458054069239388e+000
    8.9904044944812203e-003 -1.1645454501376002e+000
    9.4895904789604451e-003 -1.1622273406273762e+000
    9.9192167506672556e-003 -1.3806041877720818e+000
    9.9378291265038061e-003 -1.5717172914498314e+000
    9.5839528935607668e-003 -1.4460056736083433e+000
    1.0451645007935667e-002 -1.1626870963000862e+000
    1.4506485344264429e-002 -5.6867152085772210e-001
    4.0628868584393317e-002 -1.4562209976969587e-001
    2.8517469557617497e-001 -7.9474915160573353e-002
    3.8454142797179811e+000 -1.8911873506809743e-001
    1.3507542405175441e+000 -7.4885331963118695e-001
    3.0206635269231646e-001 -2.0798011168979166e-001
    3.7837213495131916e-002 -2.1771904814411974e-001
    1.2491094452528540e-002 -6.7894962276098492e-001
    9.1273425003486914e-003 -1.0907922430744583e+000
    9.8416963822578508e-003 -1.0179482176122825e+000
    1.0871872256043824e-002 -9.1279980221868995e-001
    1.0176769939240413e-002 -1.0979688270959320e+000
    1.0259693219512138e-002 -1.3648908717331898e+000
    9.8106310668931527e-003 -1.4290185681311518e+000
    9.4360927465196431e-003 -1.2008025686029298e+000
    1.2630756862635591e-002 -6.6918540457033571e-001
    3.8918906426126054e-002 -1.6686988642021558e-001
    6.5777738809152642e-001 -9.2147651983015624e-002
    4.5097589446165633e+000 -1.7474475791360752e-001
    1.4142591092853156e+000 -7.3558335192336088e-001
    2.2768706499776936e-001 -1.7373439236789553e-001
    3.7763235584677646e-002 -2.0930174834488249e-001
    1.2018713327841535e-002 -7.0269171768189465e-001
    8.9648018735505094e-003 -1.0374987920872800e+000
    1.1844190845825504e-002 -8.5212863350555335e-001
    1.1315684384795410e-002 -5.9841588732409112e-001
    9.9625690106967032e-003 -7.1530057709140848e-001
    1.0230379599628751e-002 -7.6157629117892056e-001
    1.0562011402865444e-002 -1.0626390876245055e+000
    9.2745945524352474e-003 -1.2476333870059839e+000
    1.1361844413857918e-002 -7.7086135162575520e-001
    3.3016035171007117e-002 -1.8928865469875467e-001
    2.9550176928555871e-001 -6.9141248551166490e-002
    4.3696899193785175e+000 -1.5629293303291270e-001
    1.6406113160427009e+000 -7.7751773249117573e-001
    2.2662326758763041e-001 -2.4384798688266640e-001
    3.4707456931044621e-002 -2.1993458550044970e-001
    1.1767001402988557e-002 -7.2355659893786561e-001
    9.3146401969124836e-003 -1.1112046475148294e+000
    1.1681335482562746e-002 -8.9175071350043833e-001
    1.0847539198645215e-002 -5.7401426874261641e-001
    1.1469102321353829e-002 -6.5450799715243047e-001
    1.0533724953672182e-002 -6.1310674823497324e-001
    1.0981749002445702e-002 -8.5713287445020325e-001
    9.7689939594662305e-003 -1.3047940039273958e+000
    1.0995597976008768e-002 -8.2401437291147672e-001
    2.9037396185766683e-002 -2.0828165103143823e-001
    1.9893940681769573e-001 -7.3527530388656545e-002
    2.9284283079114246e+000 -1.8766381108821351e-001
    1.9147060881417384e+000 -7.3905942895485888e-001
    2.2835353860665750e-001 -1.5144161651261190e-001
    3.5497815202809112e-002 -2.1975845656105669e-001
    1.2226118999112575e-002 -7.7314259518680295e-001
    1.0098329542736127e-002 -1.4487415724321169e+000
    1.0533455576850171e-002 -1.0924182416355088e+000
    1.0878309739938837e-002 -6.3674589172256002e-001
    1.1825759915047146e-002 -5.9220444808556516e-001
    1.0385518850405917e-002 -5.9342947577259797e-001
    1.0586258463001333e-002 -9.8064093485063175e-001
    9.6845463672641310e-003 -1.3948633369864003e+000
    1.1049932410051049e-002 -8.4855576337572347e-001
    2.9328526598770895e-002 -2.1815003912737038e-001
    2.7019828505809551e-001 -7.5301161409633166e-002
    4.6316634246957724e+000 -1.5185781720314009e-001
    1.9855199588180092e+000 -6.7170347340042935e-001
    2.5139258108515938e-001 -1.7159135936960207e-001
    3.8105862809469634e-002 -2.1687971694391137e-001
    1.3227911382683708e-002 -7.6566147569605447e-001
    1.1222096297019903e-002 -1.8099518710224856e+000
    1.0793334632467915e-002 -1.7156898140591064e+000
    1.1753484443418751e-002 -1.0463929264991794e+000
    1.2688593099451063e-002 -8.0473288813746569e-001
    1.1571028199031087e-002 -9.9772958202614115e-001
    1.0092485431350974e-002 -1.4847384715125913e+000
    9.8509841850697773e-003 -1.4529687836246956e+000
    1.3171370459103677e-002 -7.7075091069553781e-001
    4.0649232668344262e-002 -1.8834346403261149e-001
    1.9868251287238561e+000 -1.3324460624824669e-001
    4.5742676087566325e+000 -1.7042725815039614e-001
    1.7899252998538033e+000 -8.5628319113721441e-001
    2.3084954071495117e-001 -2.4839548196154210e-001
    4.1602801659098167e-002 -1.8959965346277527e-001
    1.5189081604975107e-002 -6.1700267854963708e-001
    1.1318900302996818e-002 -1.4334855869573273e+000
    1.0830311578360742e-002 -1.8892356779963435e+000
    1.0926809887921156e-002 -1.7464331642920901e+000
    1.2011785073346147e-002 -1.8185950008960285e+000
    1.1789340918234970e-002 -2.0500978634313127e+000
    1.0868594632473054e-002 -1.9710058686326135e+000
    1.1658648664849268e-002 -1.4000455918274581e+000
    1.8601694238365375e-002 -6.1083417414030194e-001
    7.1343388314389161e-002 -1.4725870762359017e-001
    3.9545975332684746e-001 -6.8954979343131384e-002
    3.3993098510285078e+000 -1.8237727963789310e-001
    1.4443573765614885e+000 -7.4047531674687350e-001
    3.1194850428292076e-001 -2.4314317099846133e-001
    6.2387243593100272e-002 -1.5099386526854672e-001
    1.9315644934695116e-002 -4.2359122982718128e-001
    1.2123166364346375e-002 -7.6847504939062405e-001
    1.0470327905397647e-002 -1.0511522638140194e+000
    9.2817013605985856e-003 -1.2850937429265135e+000
    9.2360678180459094e-003 -1.5203448564927344e+000
    9.9043649047676693e-003 -1.5578931289251847e+000
    1.1078449658001709e-002 -1.1971164669936363e+000
    1.3703331470791736e-002 -7.2415265368525206e-001
    2.3068062686154092e-002 -3.4512709583651402e-001
    7.1376931004484445e-002 -8.8503139486931531e-002
    6.0332749663481733e-001 -8.2721504754699249e-002
    4.0269988195762441e+000 -1.9804912227424151e-001</input_scale>
  <output_scale>
    5.2631578947368418e-001 4.9999999999999994e-001
    5.2631578947368418e-001 4.9999999999999994e-001
    5.2631578947368418e-001 4.9999999999999994e-001
    5.2631578947368418e-001 4.9999999999999994e-001
    5.2631578947368418e-001 4.9999999999999994e-001
    5.2631578947368418e-001 4.9999999999999994e-001
    5.2631578947368418e-001 4.9999999999999994e-001
    5.2631578947368418e-001 4.9999999999999994e-001
    5.2631578947368418e-001 4.9999999999999994e-001
    5.2631578947368418e-001 4.9999999999999994e-001
    5.2631578947368418e-001 4.9999999999999994e-001
    5.2631578947368418e-001 4.9999999999999994e-001
    5.2631578947368418e-001 4.9999999999999994e-001
    5.2631578947368418e-001 4.9999999999999994e-001
    5.2631578947368418e-001 4.9999999999999994e-001
    5.2631578947368418e-001 4.9999999999999994e-001
    5.2631578947368418e-001 4.9999999999999994e-001
    5.2631578947368418e-001 4.9999999999999994e-001
    5.2631578947368418e-001 4.9999999999999994e-001
    5.2631578947368418e-001 4.9999999999999994e-001
    5.2631578947368418e-001 4.9999999999999994e-001
    5.2631578947368418e-001 4.9999999999999994e-001
    5.2631578947368418e-001 4.9999999999999994e-001
    5.2631578947368418e-001 4.9999999999999994e-001
    5.2631578947368418e-001 4.9999999999999994e-001
    5.2631578947368418e-001 4.9999999999999994e-001
    5.2631578947368418e-001 4.9999999999999994e-001
    5.2631578947368418e-001 4.9999999999999994e-001
    5.2631578947368418e-001 4.9999999999999994e-001
    5.2631578947368418e-001 4.9999999999999994e-001</output_scale>
  <inv_output_scale>
    1.8999999999999999e+000 -9.4999999999999996e-001
    1.8999999999999999e+000 -9.4999999999999996e-001
    1.8999999999999999e+000 -9.4999999999999996e-001
    1.8999999999999999e+000 -9.4999999999999996e-001
    1.8999999999999999e+000 -9.4999999999999996e-001
    1.8999999999999999e+000 -9.4999999999999996e-001
    1.8999999999999999e+000 -9.4999999999999996e-001
    1.8999999999999999e+000 -9.4999999999999996e-001
    1.8999999999999999e+000 -9.4999999999999996e-001
    1.8999999999999999e+000 -9.4999999999999996e-001
    1.8999999999999999e+000 -9.4999999999999996e-001
    1.8999999999999999e+000 -9.4999999999999996e-001
    1.8999999999999999e+000 -9.4999999999999996e-001
    1.8999999999999999e+000 -9.4999999999999996e-001
    1.8999999999999999e+000 -9.4999999999999996e-001
    1.8999999999999999e+000 -9.4999999999999996e-001
    1.8999999999999999e+000 -9.4999999999999996e-001
    1.8999999999999999e+000 -9.4999999999999996e-001
    1.8999999999999999e+000 -9.4999999999999996e-001
    1.8999999999999999e+000 -9.4999999999999996e-001
    1.8999999999999999e+000 -9.4999999999999996e-001
    1.8999999999999999e+000 -9.4999999999999996e-001
    1.8999999999999999e+000 -9.4999999999999996e-001
    1.8999999999999999e+000 -9.4999999999999996e-001
    1.8999999999999999e+000 -9.4999999999999996e-001
    1.8999999999999999e+000 -9.4999999999999996e-001
    1.8999999999999999e+000 -9.4999999999999996e-001
    1.8999999999999999e+000 -9.4999999999999996e-001
    1.8999999999999999e+000 -9.4999999999999996e-001
    1.8999999999999999e+000 -9.4999999999999996e-001</inv_output_scale>
  <weights>
    <_>
      2.1356558985477481e-001 5.9912439218579742e-002
      2.9440918778901698e-001 -2.3385373036467410e-002
      -2.0450655724185296e-001 -6.0740631526389130e-002
      3.6466407620725427e-001 1.9631060374184017e-001
      -2.6757108488774797e-002 -1.3624870934696909e-001
      3.3628002325366402e-001 1.0906517931131861e-001
      6.3688299085600628e-002 -3.8080683952373440e-001
      3.9788828585747359e-002 -5.6291048559048290e-002
      -1.5409834017600616e-002 3.0446896139326801e-001
      1.0200246107161552e-002 3.4725628277982440e-001
      7.1199873458459795e-002 4.0994901593176547e-001
      1.6151179879473179e-001 -6.9644419071951444e-002
      2.5359445076638204e-001 -2.2351113654050275e-002
      -4.2528231715973461e-002 1.2563380876257560e-002
      -6.3421167117666474e-003 -4.9591535528643804e-001
      5.8506977728812715e-001 2.9247716686600811e-001
      2.5811839860085561e-001 6.7671914791816390e-001
      1.5947449962527789e+000 -6.3213234902088720e-003
      1.0070184131140072e-001 5.2601849375153242e-001
      6.5271294918734235e-002 6.0957011799644516e-002
      2.1545061529456142e-001 4.1535422006999834e-001
      1.8391718959618017e-001 -1.4927435907722733e-002
      2.3345088321269658e-001 6.9657798693250712e-003
      1.1793558046628479e-001 2.1694629119537487e-001
      7.8626079234953927e-001 -2.4569407428990515e-002
      7.7926892182138233e-002 5.1385634103594224e-001
      8.1441727351506210e-001 -4.0044599776356909e-001
      6.2172257046238100e-001 -1.4237150048757721e-001
      -2.7263870786212681e-002 2.3372763910092825e-001
      8.4862371079076196e-002 -2.8752087206557135e-002
      6.7259489316750354e-002 1.8169193865726874e-001
      1.0538799272974506e+000 -3.4295443480569415e-001
      -4.5435267167286469e-001 1.2504353898629256e-001
      -5.6070721252721493e-002 -1.4451978420410583e-001
      7.7030061321999826e-002 -1.1386318090421955e-001
      5.5472186890498036e-002 2.1075348048107470e-002
      -1.7483990826199125e-001 -2.6193263245562598e-001
      -3.5919658155797130e-001 -4.0552645450997460e-001
      2.0528837401319414e-001 1.3344042273598086e-001
      7.9694898739213885e-002 1.7549087296397811e-001
      2.6430395500152143e-001 -6.3786933740827237e-002
      1.9406541088338411e-001 -5.2843859945390670e-001
      -7.7633498665004450e-002 -5.5251770337378026e-001
      5.0771049083259034e-001 1.8070535247188385e-001
      7.3582355749718453e-001 -3.8210716570977665e-001
      4.3745948497966342e-001 1.4860614840614256e-001
      -1.5305029807517620e-001 -1.2129423539960899e-001
      -2.5885501243674347e-001 -2.8016355387639480e-001
      7.5184302291896166e-001 1.7234659236616892e-002
      3.0320317942231345e-001 7.6123503430390357e-002
      3.6266360226550748e-001 6.7242465203479707e-002
      -1.1005608069969122e-001 -1.3149293673419638e-001
      -4.1999130639980448e-001 1.2922320927196132e-001
      7.1467013922183339e-002 6.8810730308755171e-003
      -1.0089002848045757e-001 -3.7587141023484621e-001
      5.5676612989048258e-001 -2.1476122175223411e-001
      -1.0817419829948932e-001 -8.1193647450925180e-002
      3.4456238043210713e-001 -2.2422805244592373e-001
      1.4235656734592314e-001 2.2868573748453030e-001
      -1.6007137686081102e-003 1.1420245332247080e-001
      7.5695656012136736e-001 3.2933119131499622e-001
      -5.2784018539562778e-002 -9.1965773630182476e-002
      9.8481913123256076e-002 5.0046047569530172e-001
      3.4499325740771594e-002 -5.8524826331075856e-002
      4.0959261528113614e-003 1.4800080626015850e-002
      7.3069361727602200e-001 -3.2837449904340552e-002
      3.9415735482989828e-001 4.5113021119399507e-002
      1.7161388885097124e+000 5.4905490381613839e-002
      6.5040508919688520e-003 2.3580057873428797e-001
      3.5234780376316560e-001 -1.0725469029469467e-001
      1.0924377539324680e-001 -5.7775776985762618e-002
      1.0378623974779284e-001 -4.3024768398792580e-002
      -1.8195478975960182e-002 1.3929511057559152e-001
      -3.4729429057322172e-003 8.4267454306141210e-001
      6.4087694177062471e-001 -2.3776921870491530e-001
      9.2558685554548242e-002 -2.1242254477033853e-001
      -1.4455654463681081e-001 3.3521655421957441e-001
      1.8728082548432862e-001 1.9939626446022982e-001
      7.4161809360536929e-002 4.2162100530974894e-001
      -1.6453980971477983e-001 1.4533347296569221e-001
      -2.5100887589240395e-001 1.4999588552947588e-001
      -1.5917589842857791e-001 -7.1686146438435616e-001
      7.4866115114962203e-002 -2.2738642784726032e-001
      -1.0570034065629730e-002 1.6810104714381358e+000
      -4.9021287656299062e-001 4.6376335767453453e-002
      -2.6442327249495895e-001 1.6002131791337582e-001
      -1.2139394769844720e-001 -5.1790441670789356e-001
      -5.9082423570508413e-002 7.4937948582188640e-001
      7.5230939422182980e-002 1.3441610526154522e+000
      2.8302298131383546e-001 4.7207904246643367e-002
      -2.3317225376048981e-001 1.4356391598510659e-001
      -2.3289912982941971e-001 -9.5795858561173119e-001
      3.9045997467003318e-001 2.2237285911228102e-002
      -3.3286842546574746e-001 1.7368938833583392e+000
      -4.9295321176019219e-001 4.4115899131152249e-002
      -2.9957238727043656e-001 1.4819908204775825e-001
      -1.8956825223375884e-001 -1.6960255667718660e-001
      1.8316551314947702e-001 4.7539737237147678e-001
      -1.7269163891031929e-002 1.3926506361791142e+000
      -5.1413257338858731e-001 1.3674063611505461e-002
      4.1652530905794660e-001 6.7722421323392534e-001
      -5.1544052235712290e-001 -3.0376184292388409e-002
      -7.2273392762258071e-001 5.2037286939446381e-001
      -1.7089985107600089e-001 -1.1445630030668298e-001
      -7.0904145475212366e-001 -1.3921046222348640e-001
      8.6918628649301638e-002 1.7049233877526596e-001
      -5.0951802362750975e-001 -8.4343355214598348e-002
      -7.0387277214155719e-001 1.1253498312116866e-001
      -6.0370757599234370e-001 7.8259103922572685e-003
      -2.3680383248769743e-001 3.6446966270736118e-002
      1.7336875023732867e-001 -1.6092756496506308e-001
      -8.4253594708352064e-001 4.4239615551026723e-001
      -1.9408137698089800e-001 1.2429721731407562e-003
      -7.4454855312525881e-001 -1.0206768602669490e-001
      -5.7330888528611824e-002 -9.8016034042864664e-001
      2.3193494692232496e-002 -4.3597193456126021e-001
      -7.2027378194633215e-002 -1.9121070097852971e-001
      3.4884030617025198e-002 1.1979384290810795e-001
      -8.8473178097953561e-002 7.0938390026479323e-002
      -3.1842636366593752e-001 1.6701614324809305e-001
      -6.9035228902397008e-002 3.7990289179852327e-001
      -2.5414756692208879e-001 -6.4668591176365053e-001
      3.0051153977586263e-002 3.5696363354532984e-001
      -1.2577673992710195e-001 7.5519879303830473e-001
      -3.2554485929816260e-002 -4.4802395906915388e-001
      3.2176562433145139e-001 1.6362557075627399e-001
      -1.3764871580717419e-001 1.1686477494047740e-001
      5.1503970395201052e-003 -1.9809573783524265e-001
      -6.4675318619759647e-001 -5.2210783582187309e-002
      -9.7191427646344253e-002 4.5371910339755805e-001
      -1.1073724542494268e-001 1.0268244443092769e-001
      4.5354148598292753e-002 -3.7293859237656837e-002
      -3.0782034926617480e-001 1.3222542436744929e-002
      -3.0941126824200782e-001 -3.1491442554889099e-001
      -4.8563715798068835e-001 -1.3416583103217114e-001
      -1.7201831541988899e-002 6.4840988577974559e-002
      -1.3839669788222150e-001 -5.9310770465342566e-001
      -1.0846413408021287e-001 -1.1430060904762512e-001
      -1.3034451001448682e-002 -2.3366268972717105e-001
      4.6822465823311392e-002 1.6949810877191921e-003
      1.1339243032893786e-003 -1.3791275047144563e-001
      6.8100017939493412e-002 -3.8038445524663039e-002
      4.1584642492760143e-001 2.4080532384652795e-003
      -6.9298565820969008e-002 -3.8512356942761165e-002
      3.1325512774153930e-001 -1.8332213410764786e-001
      1.6640943265543948e-001 -1.4216480721519628e-001
      6.6889635740367326e-002 5.1157165354500683e-002
      6.4280569231575491e-002 1.2601223202362402e-001
      -1.3999349982827111e-001 -8.8095558054301704e-001
      2.6837452442429993e-001 -2.3565989073993021e-001
      3.6573657671676774e-001 -1.1979401296751588e-001
      -3.5203288367477031e-001 -1.1512552856994752e-001
      -4.0851224949148598e-002 7.2643350935666526e-002
      7.6150043596915934e-002 -7.4612527227688619e-001
      2.6293286680998512e-001 -6.6295496661463241e-002
      -1.6370865565418555e-001 -3.2107580098047406e-001
      6.1781561076466422e-002 -3.4415835152311713e-001
      -6.0614921728580913e-002 3.2834773790955743e-002
      2.4263878536444336e-002 -1.7492211351908213e-001
      3.4470712010252168e-002 -6.5990033990221564e-001
      -1.6355324532686108e-001 -2.0927091810745482e-001
      2.5296963070647310e-001 -2.6153450299693198e-001
      8.9373490514348800e-002 2.4055372144685006e-001
      4.5215668007555121e-001 4.5529673114234635e-002
      -4.7760844612741660e-001 5.7309657119952728e-001
      -2.9434057682299419e-001 -1.1245238317480495e-001
      -2.0839068372926986e-001 -1.3903655132222451e-001
      2.6851357245850249e-001 3.4937683926141189e-001
      7.8514070736452293e-002 2.5361030071901030e-002
      -9.5003719602446510e-002 -1.1246483333740173e-001
      -1.8998059466139891e-001 3.9514682320611678e-002
      8.1724107235838381e-002 1.2828555796887159e-001
      1.4536385640283661e-001 -1.3020380646886323e-001
      2.0816775367615828e-001 1.0897926739832088e-001
      -1.0463923173513129e-001 3.8498639112330958e-002
      -4.6129305472595583e-002 -8.6203310422055895e-002
      2.1030946151030644e-001 2.6467361570504278e-001
      2.0155616784942954e-001 1.9787999088843711e-001
      1.2294130770734576e-001 -8.3589127138090219e-002
      3.5829174724102608e-001 6.7402739410339141e-002
      2.4580553262802635e-002 -3.5393545108610963e-001
      1.2007965211789708e-001 1.7225560814073476e-002
      1.0983506644880936e+000 1.3096932706028099e-003
      -2.3534634720524694e-001 5.0893991041720918e-002
      3.6308921519149617e-001 3.3815159954469162e-003
      1.4534885007436002e-001 -3.7618429352778205e-003
      5.2868522577109345e-001 2.4890731352424389e-001
      3.3091995453073314e-001 9.6219606766803398e-002
      -4.9953725797681231e-002 -2.4046535738266947e-001
      1.7604120662132441e-001 1.9291103508590834e-001
      1.9928956291321109e-001 1.0253740058337271e-001
      1.0431479592875342e-001 3.5622565520782529e-001
      4.4481000531434101e-001 1.0765216406145271e-001
      -2.1251305130497603e-001 -2.2372330177053351e-001
      3.0863136185102236e-001 -7.1013654497374720e-002
      1.4270397367774032e-001 1.1155645544707368e-002
      9.8992828584795925e-002 2.0327372123707901e-001
      4.9539253172842390e-001 2.6494681295966138e-001
      -1.7218226714433874e-001 -3.1642463640463192e-001
      8.2932573128018119e-002 -1.1811925713806791e-001
      -3.4539671743683842e-001 -6.6559950549086019e-002
      -2.0385320814048844e-002 2.3770387170417885e-002
      5.3535580777383307e-001 -2.1826912366882248e-001
      -4.3723179715727328e-001 -1.9020109687362266e-001
      5.5818395258439679e-002 -3.1148208440007860e-002
      2.8463365679748021e-001 2.8373432620863049e-002
      -7.6046900257388028e-002 -1.3777900132143572e+000
      -2.7864465833470597e-001 2.0392183287465921e+000
      2.0481264363336324e-001 1.1881266623982117e-001
      9.8456016999853135e-001 8.8571753983826340e-001
      6.1607622238545559e-002 4.2565662019109267e-002
      -6.6827971156238564e-001 1.9435149443505567e-001
      -9.4038841372821425e-002 -1.1999509522475900e-001
      -6.1747660222256451e-001 -3.4215751441263548e-001
      4.1874452063066331e-001 -3.1134894302192806e-001
      3.6744080075009627e-001 2.5612761627489533e-001
      -3.1067806830336925e-001 -7.2323210060586882e-002
      -2.2375789439067009e-002 -7.0733678650137166e-001
      -2.0440404023800868e-001 3.0640468355832162e-001
      3.7478133817697823e-002 -2.5204051364007340e-001
      1.8028207375872135e-001 9.2744476694451697e-002
      -4.9708140185766048e-001 -8.7206411784129930e-004
      8.7673592640856168e-002 -2.5858749936966929e-001
      -8.6431208603986642e-001 -5.1630819202581404e-002
      3.6903540255818400e-002 -1.1566732661886936e+000
      1.3159650811492243e-001 1.6299241347185153e-001
      1.8239284894848989e-001 -8.9799348144260299e-002
      -1.1131434780820988e-001 -1.6343724213740873e-001
      -6.8389473746164234e-002 -1.0957167687406622e-002
      3.8311394887158449e-002 -6.3261364696432787e-002
      6.8151141048203162e-002 -3.1229075146611213e-001
      3.7844601421169843e-001 -3.7518994079168609e-002
      -1.0290930409027463e-001 -7.0270733810089997e-002
      -1.9215053127239142e-002 2.0041676015181883e-001
      -7.2019787617546016e-002 2.5669580826648614e-001
      1.6184125526867227e-001 7.4952665765378790e-002
      3.5872015371209820e-001 -4.1623686551192071e-002
      -2.4741326933866989e-001 1.2660811384232845e-001
      1.3733639906503425e-001 -3.5842976107012381e-001
      -1.1452127132361947e-001 6.4353813614824451e-001
      7.8561781268480319e-002 1.1964233720354271e+000
      -3.6872524897914677e-002 -1.5691831861452107e-001
      -9.6984092735172986e-002 2.4873241946402790e-002
      3.8546327901171146e-001 -1.6331569858417455e-001
      -3.3791695215043488e-001 4.7589843172807594e-001
      7.4348490253061630e-002 4.5192311834690219e-002
      7.2236263108856738e-002 4.8519938499846250e-003
      -4.6188986792837972e-001 1.9547240795999527e-002
      -2.9954604415541347e-002 -4.4187928641399077e-001
      1.8867183361037949e-003 -2.7441180855622322e-002
      -1.3959655107283342e-002 -1.0451435128992058e-001
      -1.1078059173693594e-001 -1.3255119516682748e-001
      -3.3832984388475595e-001 6.7696982030771305e-002
      7.0487664535433588e-003 2.0176395226635426e+000
      -1.9387628608859825e-001 -2.0736459766112273e-002
      -1.1966777457663251e-001 -3.1756101251805807e-001
      2.3605619256650247e-002 -1.2998743293586229e-001
      -5.4569073987811120e-002 -5.4957463187376321e-002
      3.1366188555024821e-001 3.3765065418644619e-001
      4.3943772258940328e-001 -1.1847271017405487e-003
      -4.9194550460363823e-001 -1.0637620279167679e+000
      -8.2667914507013607e-003 7.7294809679396099e-003
      -5.0618805829535596e-001 -1.6961147012660552e-001
      -1.1538956537918412e+000 5.1271746455998013e-001
      2.5501389502238392e-001 -5.1738922139132426e-001
      1.3924645051948195e-002 -6.5517510412532243e-001
      1.1452345293414508e-001 1.2693045820783225e-001
      -1.0722856376396634e+000 6.4659206539565181e-002
      -2.1385113108908049e+000 1.5659104493240242e-001
      5.9405527822228310e-001 -5.2846163688057146e-001
      4.3811843341493090e-001 -9.3614161439803245e-001
      -6.5654644743076196e-002 -2.8412355952558305e-001
      -1.1149355816756421e-001 1.0500913022076346e-001
      -2.1317791145293166e+000 1.3423317461347201e-001
      -2.4348692912463388e-002 -1.4850771251417816e+000
      -4.3005834576294102e-002 4.5625282359684508e-002
      -2.6004319100386447e-001 -3.5109346189993274e-001
      2.1450743306448006e-001 6.6989794080304976e-001
      8.3703485380447421e-003 -2.2489375282987813e-002
      -2.0547764232385810e-001 -1.8867974232097899e-002
      4.7349722514397991e-001 -1.4133081175996989e-001
      6.0214896572470242e-002 -3.0398338215874682e-001
      -3.3026216930254959e-001 4.3648952066067542e-001
      -2.8418152466539065e-001 -6.0045556137237965e-001
      9.9431648192229627e-001 -4.3440657902371282e-002
      6.8042032617065859e-002 2.8155418763573187e-003
      -8.9539653774620670e-002 -1.8591475578301417e-001
      -1.0840978292411604e-001 -1.2334707222661345e-001
      -2.6198232947220645e-001 2.9866500879906333e-001
      -1.3622151742925928e-001 -2.2368589749957263e-001
      2.8433629788342119e-001 9.2521451991905326e-002
      -2.4839242557859506e-001 -6.7959690993757663e-002
      -1.7903409200589920e-001 -2.3859911502179229e-001
      -1.4225928551399036e-001 1.2819248979091671e-001
      3.6905112053984772e-002 1.5608790271324453e-002
      4.2892746743280635e-001 1.3192279570568186e-001
      -1.0428260450159278e-001 5.4284214742291315e-001
      1.3783958269414426e-001 -2.1382986815852398e-001
      -5.6978809395717500e-001 6.8338952901617811e-001
      -1.5180301923912384e-001 5.4025924975939305e-002
      3.7139386965493543e-002 -4.0012225906928926e-002
      -6.5469610125063604e-001 -1.3063333101913513e-001
      2.6236726493355778e-001 9.1471308683443109e-002
      -6.4400319045443771e-002 -7.5019209049600924e-002
      -1.9191232682809894e-001 2.1777852745710299e-001
      -3.4260663366755917e-003 -1.0193304051023246e-001
      -4.4561510335029281e-001 -1.1192756964246856e-001
      -1.1910212630747758e+000 1.4436352829075785e-001
      -1.2402705796012464e-001 -4.5607622754908367e-001
      1.2474158684239850e-002 4.7949696641754502e-001
      1.7068248647521397e-001 7.9081326995880030e-001
      -8.3574448354592767e-002 -7.4080855904152282e-002
      -1.1835138355885186e+000 -1.3842618052392447e-001
      -3.5862813113134423e-001 4.7745524666048550e-001
      2.4987311623662845e-001 3.1196550706901605e-001
      3.8900350659107413e-001 -5.0496543537352293e-002
      1.8337868896706799e-001 -4.4979830682011841e-002
      -3.8784632793243212e-001 -2.3629061380374874e-002
      -1.0430720538417054e-001 -3.6957275829196591e-002
      -5.6455495717736566e-002 2.7702769689671480e-001
      -7.4208224461848293e-001 1.2789534582843828e-001
      -5.6230108498359044e-001 -6.5575510157294695e-002
      1.5192032258765887e-002 -7.6162780346345049e-002
      -2.5688522278801290e-001 9.5437666233954976e-001
      -1.3582334490906484e-001 -7.1438143697020007e-002
      2.9421291046697384e-002 -1.7587359048017900e-001
      -4.2931226954109325e-001 -1.9107853484852771e-001
      -5.0496925477000056e-002 -3.0965303981336283e-002
      -2.1982909724977881e-001 3.5614274198817192e-001
      -3.1169362778022114e-001 -1.7358995596984842e-002
      6.0520630157313501e-002 -1.2061493487551678e-001
      1.4504266307372707e-001 -5.8951268733434335e-002
      -5.3796209370707981e-001 -2.0213205380727925e-001
      -8.4615122157762845e-001 4.0212151706418470e-001
      -4.6568627097981363e-001 4.5470198273098346e-002
      -3.4135848884219838e-001 -1.0890057125247874e+000
      -9.7454540271046708e-001 -5.4392589766257815e-001
      1.9598051997200805e+000 -7.7654822161242898e-001
      -1.1680795555734453e+000 2.2650618291520117e-001
      -1.9075820495866699e-001 -2.5158583039478821e-001
      -6.3844519968297916e-002 -4.8308706105756094e-001
      1.1863418611970639e-001 3.6415856608835111e-002
      -6.1430752119401921e-001 -7.1315178790704939e-002
      -1.1458249971675882e+000 1.5649463960320828e-001
      -3.7533551995224362e-001 -4.7288927855809554e-001
      6.3118747957759225e-001 -1.4907493721902059e+000
      -1.1183725331813875e-001 -3.4692342978978566e-002
      -6.4090550691782133e-001 2.4008076240260992e-001
      -2.1313889272603985e+000 2.4087078879457813e-001
      -1.0270417035067777e-002 -5.4925964869768729e-001
      -1.7212405785598192e-001 1.2825079156249067e-001
      2.1083152569412675e-001 -1.9536768442530511e-001
      1.0568208232040709e-003 2.6283972185932158e-001
      -1.8860064204588925e-001 3.5298647273007994e-002
      -7.2713323263167318e-002 -1.7360908307812675e-001
      -5.4035437863670308e-002 -1.3555331370777543e-001
      1.2548315290189438e-001 -3.1721344722922495e-001
      1.3848580524381043e-001 1.5302195866340524e+000
      -4.2701730527711518e-001 -5.2195900027114095e-001
      4.9937608857145144e-001 -6.3200392416178663e-001
      -5.9652113505325910e-001 1.2731417680128967e-001
      -9.1709577698038516e-002 -1.0869040608224838e-001
      6.4623489738938600e-001 9.8459938856668323e-003
      -2.4462859505943677e-001 -6.4219543355605070e-003
      -2.8820828186278846e-001 -1.1990871878563732e-001
      1.0530489552977963e-001 -3.7202191690670211e-002
      3.3073061882850269e-001 -1.4561131394394453e-001
      -5.3621708283239436e-002 -2.0701447928641739e-001
      1.2684282639490074e-001 -5.1360838176543988e-001
      3.6175731838498836e-002 1.1093773973022945e+000
      1.5149407760356881e-001 3.4337484809797342e-001
      -2.3391490237393239e-001 2.9792444077976166e-001
      2.7455853688723181e-001 4.7605983778553025e-002
      -2.3334828905721899e-001 2.5240620180898399e-001
      3.6190345001389353e-002 -5.3623026865798451e-002
      6.5598217077863771e-002 -2.8030174482494491e-001
      -3.1233354959151149e-001 -6.8509697170739647e-001
      5.2709380276409146e-002 2.0313081007471337e-001
      6.6807879199856243e-002 9.1513524790624884e-002
      4.2493577463821608e-001 -2.2885140158179373e-001
      -1.2354518145550897e-001 3.0904368296221724e-001
      -1.1330029404817274e-002 2.5503942749767389e-001
      -4.3908380828641812e-002 5.0059552696711099e-002
      8.6461918928237722e-002 -5.2728487116059497e-001
      1.8723176270004721e-001 -2.0632193979536950e-003
      -1.6426671536769247e-001 5.3692263419745268e-001
      1.9225445921827317e-001 1.0070833345573362e+000
      -2.0438450989999121e-001 -4.3786467342559532e-001
      9.7547126040885765e-002 -1.3984809533859599e-001
      1.0266020908809662e-001 3.3747807060807522e-001
      -3.7849717294106816e-001 -2.7829241045666669e-002
      -5.9015909928446429e-002 -4.0950023164331273e-002
      3.1644033575158118e-002 -2.7644678615542723e-002
      7.9980594922832396e-002 5.6391196038416480e-001
      2.1898536952511011e-002 4.1517167078263764e-002
      3.9764592872268703e-002 -1.8460061254055213e-001
      -1.7404365459850540e-001 -2.2836860983300430e-001
      3.1386170869436858e-001 -8.8420674753665763e-003
      -3.4651282136658731e-002 9.3423527980047127e-001
      -1.1702442568694851e+000 -2.6716278377619646e-001
      5.4554579752348870e-002 -3.5988591015229843e-001
      -4.4881688766018729e-001 -5.1353399276299183e-001
      6.0293291986900555e-001 2.1754370690699004e-002
      -1.7560596281440397e-002 3.1219000945240971e-001
      6.9309559677913690e-002 -1.2708749154496390e-001
      9.2757672287318033e-003 -9.9625035901778869e-001
      -4.8695136025534486e-001 -1.8952859511641959e-001
      1.2614373834740839e-001 3.5333174492441299e-001
      1.9784598025590050e-001 1.0136303611531150e-001
      -2.4967451409640001e-001 -3.9878467152820274e-001
      4.8877972006870180e-001 -1.2160194118314029e+000
      2.4623764836834539e-002 -1.9990236499251884e-001
      -8.4647946322746237e-001 7.0384306340369696e-001
      -2.1327589554684443e+000 1.1304928030164177e-001
      8.2083956097994265e-002 -1.4593934086558142e+000
      1.2201835278549956e-001 -9.3148397340026134e-001
      -4.1688461893191406e-002 4.4826505237481988e-002
      -8.4362338141267046e-001 -2.0367590171703362e-001
      -2.1408705995751358e+000 5.1291590410011556e-001
      -4.6271680309623037e-001 -2.9332173840654274e-001
      1.9708632342447524e-001 -1.4639012034843015e+000
      -2.8859851941104342e-001 3.3545887279937049e-002
      2.1416011057573631e-001 -5.6928454482988433e-001
      -2.1346750946142494e+000 1.5344628715729400e-001
      -2.0404174026537281e-004 -1.3923303738009885e+000
      9.1118516697331717e-002 -2.3117812170129456e-001
      3.1991996762324920e-002 -3.7743406941083121e-002
      2.7760262984916656e-001 -3.6332530091426105e-002
      -3.1510242776459868e-001 -3.2511885940675361e-002
      2.3442350359621567e-001 -6.7095927751244538e-002
      1.7168471857020096e-001 1.1981716042327065e-001
      2.3713613803294503e-001 -2.6413771075553810e-001
      -8.3296555246374970e-001 5.2959752373773872e-001
      -2.2342019721888237e-001 -1.0851542168419586e+000
      1.1448327623030830e+000 -3.2144263659698309e-002
      -8.6826040860315135e-001 2.6585601580273804e-001
      -1.1706823894138768e-002 -2.4889089978642717e-001
      5.4863688702082714e-001 -7.7842566390816187e-002
      -6.0709263569821637e-001 -1.4390208701567597e-001
      2.0158604717708268e-002 -1.6388122054866130e-001
      3.2685681085289610e-002 6.1967401650313086e-002
      5.3312253484028027e-001 -3.7942272891667467e-001
      -8.3431503304254681e-002 1.5007591510015506e-001
      1.0732904595490710e-001 -1.0307589844481378e-002
      -1.6971678249632935e-001 3.4818856153961864e-001
      2.7137833746801832e-001 -2.8733193417885838e-001
      -1.5615219840043615e-001 -6.3968990077363330e-001
      -1.0412562859285092e-001 4.4197576307437342e-002
      -1.1526959208750334e-001 -2.4235756847489451e-001
      -2.1688991315629055e-001 2.5029191238503689e-003
      -3.3539909768263954e-001 6.8602241002646702e-001
      -3.3195554259056494e-002 -3.9275734275608915e-001
      5.5691860824398154e-001 -1.7807999076650505e-001
      -2.7122169633537629e-001 -7.9682573125682110e-002
      8.7033541751560972e-002 2.7583163136375863e-002
      -2.0090324679873028e-001 3.6362807586340429e-001
      4.2267512214960654e-002 9.0049623040547200e-002
      -2.2164598211124215e-001 -4.3089572682875159e-002
      1.2863336347273832e-001 1.7257065270245642e-001
      5.2272754674169397e-001 2.3929481407731479e-002
      -2.3637613729037635e-001 4.8094849347945839e-001
      7.7976730199472410e-001 1.8322948411687821e+000
      -1.1709295521900807e+000 9.9462825937888504e-003
      6.0088274327489877e-001 -1.3097856388483040e-001
      4.3436238834432955e-002 1.0890775213855310e-001
      -3.5623819821960973e-001 4.9959683020176553e-002
      3.0170309723223143e-001 -2.1737401741084988e-001
      -2.1960793067472983e-001 -2.0102214869039312e-001
      5.0452164012139804e-002 4.9497044213708763e-002
      -2.8846922764744287e-001 -4.4982598472358282e-001
      1.2069892257886844e-001 -3.2750927391796680e-001
      1.4047572486981522e-001 -3.3823506372423200e-002
      2.6258700527892059e-001 6.1341521277812915e-002
      2.0279614373288998e-001 8.3457682363154095e-001
      4.1036672252011858e-001 -4.8357935780164490e-001
      1.0405579987760412e-001 -3.8710096126281610e-002
      6.0177839098663355e-001 -7.4680696250201458e-003
      3.7276697452710517e-001 -7.3032119654787286e-001
      -1.5199880347727965e-001 8.6747145616883492e-001
      -5.1317942530193963e-002 2.9238161078563835e-002
      -4.9384321189398936e-002 -3.4512557546490941e-001
      -1.7604931246183786e-002 -3.1262871142131121e-001
      3.8287186879490698e-001 -1.8662703937628541e-001
      7.8569436308539811e-002 5.0029064014100655e-001
      -1.3860266413423278e-001 6.1234140278855695e-003
      1.2000330087336015e+000 -6.7915101101574749e-001
      -1.6604109016693797e-001 3.3810036330889082e-002
      -1.6161136684262464e-001 1.2280931602929779e+000
      -2.1355082953927873e+000 7.1758650384418898e-001
      1.0092002609012467e+000 -1.3366750773691860e+000
      2.6332640074499341e+000 -6.5910985484099505e-001
      -1.5339566193443699e-001 4.5850681468919147e-001
      -6.9734453720256895e-001 1.6643706495078978e-001
      -2.1322900713894399e+000 -1.0507221177878306e-001
      6.5196946109435039e-001 -1.3484046757881329e+000
      2.1387636189968745e-001 -1.2789583291502256e+000
      -1.8432315045889873e-002 -4.0241590425697915e-002
      -1.4040168734594753e+000 9.5222265149915186e-001
      -2.1394397209899227e+000 -2.9816466502518518e-001
      -1.2707963393965043e+000 -7.3710226991515915e-001
      1.0400156575575058e-001 6.8556000136418715e-002
      5.3139854531746793e-002 5.6888320031309392e-002
      8.5616267638773669e-002 4.1441017988962436e-002
      -2.8218705690855658e-002 3.5784469382286960e-001
      9.8038647568918530e-002 -1.2538622117539167e-001
      1.6341529921424078e-001 -3.2522308585829558e-002
      -3.0635087784974681e-002 -4.8015663428034816e-001
      -2.4295340489277029e-001 7.5501629301833206e-001
      -1.1588418960185819e-001 -9.6316198708949907e-001
      4.7907884265746636e-001 -3.6622303329661904e-001
      -1.0204033230788490e+000 6.1897631533452313e-001
      -1.1832587529428588e-001 -2.4953854838266371e-001
      5.2494087757086039e-001 1.3553059787150026e-001
      -5.0405392859857256e-001 -7.0921111051527808e-001
      8.3436812243384437e-002 -3.8396095903859934e-001
      -2.5330317521167894e-001 1.6867403070952117e-001
      3.3434728503177802e-001 -2.8596646884348870e-001
      -6.5885929389237249e-002 1.9861706919966821e-001
      -9.1790779117205012e-002 -1.2285785004527779e-001
      -3.5823368760319835e-001 4.3790561607724254e-001
      -2.5064284394076181e-001 8.7608553491127339e-002
      -9.4418580988898604e-002 -3.0672186342925412e-001
      -8.9804187773148372e-002 2.4580397441353949e-001
      -2.7460869932635207e-001 -3.6633770048205011e-001
      9.9217609258566666e-002 -4.5944394405500931e-002
      -4.3755027246051303e-001 2.1364636010922630e-001
      1.0555150736103257e-001 -1.6467249874758455e-001
      4.9271709812499781e-001 -3.1707022492280440e-002
      -1.7738785384334144e-001 1.0234581428116579e-001
      1.4586219877791243e-001 3.8153822868248505e-002
      -3.0455975798619889e-001 6.4603612878748801e-002
      5.3722194840606259e-003 9.0230550613882710e-001
      1.1189947189967887e-001 -5.4920124079884523e-002
      6.0603232013502289e-002 2.9484263206997535e-001
      4.9758202922733985e-001 -4.6319798779325178e-001
      -1.4879645240238411e+000 8.4677412258680806e-002
      7.1254234376752601e-002 1.1662882210323616e-001
      -2.6081552873337566e-001 4.2747417877601536e-002
      9.0235812744452826e-001 -1.3345053725541400e-001
      8.5213251039002916e-002 -1.0648790778640450e-001
      -1.2090212629116633e-001 2.3073984382427201e-001
      -8.2915554187820539e-002 -3.7419104172180095e-001
      -2.0525948104036634e-001 -8.4163024008812662e-002
      2.3564373400898236e-001 -5.0310223670483739e-002
      -4.0046096464682618e-001 -3.9232017677234687e-001
      3.7625512662046709e-002 -4.7009578842041189e-001
      2.6042552643825956e-001 -7.6818252624111877e-002
      2.6776699981020130e-001 -9.1494601395198855e-002
      2.3920505498860845e-001 2.7170380463599364e-001
      -1.8146001452974733e-001 -6.6963379387309692e-004
      9.3821441468357317e-002 -4.7927189490123707e-002
      9.5744107304725889e-001 5.3774888945176058e-001
      -1.2238565264228171e-001 -6.3781311618797357e-003
      5.7533057752296723e-001 5.6248468347850145e-001
      -5.1636822867121446e-001 1.7881020697091984e-001
      -5.1043811678325952e-002 -3.7632678121227364e-001
      7.1887166719005158e-001 -6.2437146083260002e-002
      5.2655025399981792e-002 -2.8293754706554042e-002
      9.7587381695795700e-002 1.3580706007691479e-001
      5.8415278238042517e-002 1.6645730185097363e-001
      1.2107778554932567e+000 -1.0310584092312394e-001
      1.0436650389701220e-001 1.1012638468755517e-001
      -1.7058008050822909e-001 3.3898723600210773e-001
      -2.1407852920721298e+000 -2.7569035923628032e-001
      1.0171605964724677e+000 -6.6540443550777162e-001
      1.4798008662625559e+000 -8.9705524039235784e-001
      -8.7582253549569625e-002 4.6586354986590844e-001
      -4.5267297166721704e-001 1.6503822726447653e-001
      -2.1350410041330785e+000 -3.0992238037408797e-002
      6.9275506682284971e-001 -1.3338051811516980e+000
      2.1119889449835552e-001 -5.5963127824458858e-001
      -2.5210979082297991e-001 1.5223396572244740e-002
      -9.9202979559178472e-001 5.9437017436031046e-002
      -6.5820170539603051e-001 9.7557105064396743e-001
      1.2282922650217088e-002 7.8498231250789108e-001
      1.1391361287692751e-002 -1.6881246347811456e-002
      3.4983350762046850e-001 2.4407470658911479e-001
      5.0896020338625469e-001 6.2301254134921202e-001
      -5.4374078371380863e-002 -1.6512703937455681e-001
      -1.3041661260615053e-001 4.4158425664075485e-001
      2.2847786229898370e-001 -8.3727757368560296e-001
      -8.6340233556398097e-002 8.4117007974581451e-002
      -6.1315596838207298e-001 -4.4624186029619928e+000
      -6.5889096902601418e-001 -1.1947935422576537e+000
      -1.7938935818539907e+000 -5.3339073838598183e-001
      -1.6194342030521316e+000 1.0644478593617956e-001
      -2.3951483725967662e-001 -2.4029665052707105e-001
      5.1750619407264697e-001 1.6974511367021855e-001
      -3.4453177224071069e-001 -5.5958763671604617e-001
      1.5090498570478111e-001 -1.4984344483424901e+000
      -2.6983499685017093e-001 9.1801980783645576e-001
      -1.6472232362155387e-001 -2.0373072731668712e-001
      -3.0786657212512027e-002 2.4732303236124012e-001
      -9.7322440062960702e-002 -1.2292310557019860e-001
      6.6510761626533271e-002 -6.9255883720257350e-001
      -2.2557655501090756e-001 7.5379380291275305e-002
      3.3455114235514194e-001 -5.1260006813974279e-001
      -6.4308870577548458e-002 3.1523704532130062e-002
      -1.1256025888423840e-001 -4.5854684558274439e-001
      1.6247792031767533e-001 -1.3112430213203943e-001
      -7.9781002944299712e-002 -4.0929555183763483e-001
      1.2766869209580062e-001 -2.5527958229339293e-001
      -2.2460804958337344e-002 -2.3052115424173383e-001
      -6.9880015756120184e-001 6.9614373203175955e-002
      3.2426346185055986e-002 1.3074461941279003e+000
      -2.9122147627938538e-001 1.0170094416965809e-003
      -1.3788648765196879e-001 -2.4405365355471306e-001
      -2.1453345620991104e-001 -2.7189200822603721e-002
      -2.3206267236431447e-003 1.6361877028071631e-001
      7.3001486421845996e-001 -1.0990053874418142e-001
      -1.8170823238156081e-001 -1.7104737259418218e-001
      1.4872169394376281e-001 -1.4610035255119685e-001
      -2.3547390975753313e-001 4.6043695393323494e-002
      4.2000786382240574e-001 -1.5712805352310533e-001
      4.3450272815626251e-001 -1.3142520020158650e+000
      4.9378549159382945e-002 -2.6035660967490643e-001
      -1.3968378803197734e-001 -6.3042021953251398e-002
      -2.0812780717029331e-001 1.6319921816943396e-002
      3.0466939247179381e-001 1.2835313707594062e-001
      -8.9208918702331844e-002 -3.1168056184653799e-002
      -8.0894833570584745e-002 -5.1747344722960269e-002
      3.0038955300038489e-001 5.3129596164214761e-002
      -2.7598978762897255e-002 1.2392338020827721e-002
      2.3745767160664802e-001 1.8451581578210713e-001
      -1.8237123339318351e+000 7.7258200304690428e-001
      1.9678737889372598e-002 -5.1415600862371409e-002
      1.4525972526401780e+000 3.5230811520940208e-001
      -9.7017222143788162e-002 -5.3947158454941753e-002
      3.6705429979660364e-001 3.4916413407869068e-001
      -5.1589720879197720e-001 1.7053181972663195e-001
      -6.1504464850726727e-002 7.4968744126784992e-001
      4.0325990928141309e-001 1.3911613435959770e-002
      -6.3813460067594058e-002 -4.4289259893001121e-001
      1.7036922832833509e-001 3.5517027666010231e-001
      5.4642204348487752e-002 -6.1598043897338257e-002
      1.1924785454042894e+000 1.7860183133462430e-002
      1.0500659268598489e-001 1.9349623944090599e-001
      -1.5064622492581703e+000 1.1230907797519827e+000
      -2.1282504102996471e+000 1.1771407449320005e-001
      1.7076148404912876e+000 -1.3244626241712352e+000
      1.0739037009487380e+000 -9.2806467335216736e-001
      8.8526396726212597e-002 1.1278696606366566e-001
      -1.3109486012961522e+000 5.1150326707205851e-001
      -2.1284817429228831e+000 1.6793192112283986e-001
      6.5990352487866688e-001 -1.0063305003475902e+000
      1.4845172347001973e-001 -2.5089020065063272e-001
      6.8299187134912162e-002 1.6348273891065076e-002
      -8.9229101877779854e-002 -3.8366693561520276e-001
      -2.1420650907235630e+000 3.1080931913038068e-001
      -4.3108003741847922e-002 -3.1713395620857054e-001
      -1.5102655533045531e-002 5.4557328654690644e-002
      -2.9477389563119216e-001 -4.6791963224225425e-001
      7.4296638331601716e-002 4.9328664472650596e-001
      -1.1047558489317461e-001 7.4929072605502481e-002
      -4.0745875215842225e-001 1.7093066305633051e-001
      3.6828581812150180e-001 -4.4831651606249814e-002
      3.9707950571576267e-001 2.2887883797133576e-001
      -5.3468269750399744e-001 1.7212248632508516e+000
      2.2759797202107610e-002 6.6431810610004027e-001
      2.6226095734833740e-002 2.3116462264712907e+000
      -2.6348139036431689e-001 -2.2860229960126632e-001
      -4.2571567299323779e-002 6.9129956541066198e-002
      5.0571000257585319e-001 3.1010647869774155e-001
      -3.5265939952469388e-001 3.5846997788218746e-002
      -1.1479742446490424e+000 1.3808831723412314e+000
      -6.7143304694482642e-001 1.7416087927615706e-001
      -3.8357688002970863e-001 1.6736269010407961e-001
      1.6280746043810024e-001 1.7781045760198128e-001
      -1.7620191377943439e-001 -2.3427657149089676e-001
      2.3593928768598887e-001 -2.5529814562221936e-001
      -1.8987724681891605e-001 3.2857887786319628e-001
      1.2402069702500908e-001 -4.2603283100260081e-001
      -1.0717760799270186e-002 3.8003042050771763e-002
      -1.6401474917247114e-001 -4.5169800423060275e-001
      1.8093292066838085e-001 -1.1861007888839457e+000
      1.2525630168258979e-002 -2.0230958693758114e-001
      1.5306054851069237e-001 -1.6941466631897184e-001
      -3.3785246929286555e-002 -2.2836798154242183e-001
      -2.5038981629532064e-001 -1.6149691902187996e-001
      8.4505511492088259e-001 -9.0667626328769055e-002
      -1.2181293988153605e-001 -1.2890927645875636e-001
      4.0261481015546946e-001 -2.9720377905414125e-001
      -2.8519812067952463e-003 -1.8738798086679390e-001
      1.5528829104664185e-001 3.8499661667991641e-001
      1.3264842683910836e+000 -1.8496414424370425e-001
      -5.2150211890422649e-001 -4.8017232141852378e-001
      2.8391123974913751e-001 -3.0850539419679573e-001
      -3.3755933719380832e-001 -1.9670618943673090e-001
      7.0243986546394868e-002 -3.0132114272904775e-001
      1.0810639993819948e+000 -7.5724634996585583e-001
      -1.6789159292638359e-001 -3.6918440326066748e-001
      -5.7275834099970679e-001 -8.0947574462869834e-002
      -1.1102423191097790e+000 -6.3748079034092675e-001
      1.4791000556958520e+000 -1.1479661516105668e+000
      -9.0459449715157503e-001 -7.5937590004545960e-002
      5.3934322160118342e-001 -2.3087657008628867e-001
      2.8404858026336260e-001 3.7639226778273382e-001
      -1.5335516061688061e-002 4.6848358781404975e-002
      1.8620037955438754e-001 -1.2969050809436938e-001
      8.7868701852929512e-002 -6.7365890725677058e-002
      4.9146553142085374e-002 7.7577475336142898e-002
      5.3864786587924940e-001 5.2966687413373092e-001
      -7.5202423313884770e-002 -2.3071180300665618e-002
      1.9108185856174972e-001 2.5910947072936058e-001
      -1.3727938726401920e-001 -5.1414346614786818e-002
      -1.2009804478945268e-002 1.1419842886593548e-001
      7.2327160754528752e-001 7.4515820180559217e-002
      -5.9886850653745570e-002 -5.4636591439677619e-002
      -2.9311034998965074e-001 9.3159002392462820e-001
      6.0977512020918917e-002 -8.9006573617486276e-002
      1.1863617525406742e+000 -1.5574317043322308e-002
      6.5084118825071147e-002 -1.5473862607914318e-001
      -5.4204252209598758e-001 6.0637790034409800e-001
      -1.0418647095577380e+000 -3.4072350658693751e-001
      1.7245388147157357e+000 -1.4605258485664701e+000
      1.8135133718527616e-001 -1.0926837261266387e-001
      -1.1344213165991919e-002 1.0548472001991474e-002
      -3.5183562732554202e-001 5.6405003984793045e-001
      -1.0474154694877196e+000 -8.4810136189109708e-002
      1.6237708430699525e+000 -3.7491317457482154e-001
      -1.4566275264840260e+000 1.5447308254319334e-001
      2.9289641191396232e-001 -6.2859529001867864e-002
      -1.3250335479463946e-001 1.1551600330340193e+000
      1.4618772310403752e-001 1.5838513821201881e+000
      1.6423057739027531e+000 7.6956678883186025e-001
      2.3454449410221545e-001 -1.6739555892357282e-002
      -2.6323536089285476e-001 6.2658996337578918e-004
      -1.5752517503808610e-002 7.1291986518727240e-003
      8.0051946475904001e-001 4.1427611123482572e-001
      -8.8622376653519117e-002 3.8804933123422689e-002
      8.4543917012843445e-002 -1.3771018381147251e+000
      -2.0306551848448501e-001 6.2297046515463500e-002
      -1.2440878071392594e-001 8.6427677257200108e-001
      -1.2090737645109202e+000 -5.8717258264053884e-001
      1.0495468876386396e+000 -7.7898609688061304e-001
      -2.5969568200941973e-001 -7.4449006506998405e-001
      -9.3757707495209980e-002 -6.3275741289437881e-001
      -1.2722407556895909e-002 5.8396594042111491e-002
      6.2047581779231820e-001 5.6299699621342192e-001
      7.2006259267196587e-002 2.3841588625178475e-001
      -4.1420709620800533e-001 1.8825618689808502e-001
      -3.3174732575325067e-001 9.3876269202062587e-002
      7.4636763736225256e-002 1.8570566102843597e-001
      2.9308542883807837e-001 -1.2863915884394109e-001
      2.1948040545579521e-002 -3.6717552622794847e-001
      -2.0814396489449691e-001 5.6982552352557314e-001
      -3.7878381720657650e-001 2.8471850608671852e-002
      -5.0436753828780413e-002 5.2914300167718009e-001
      -1.7497661360880190e-001 -2.1677579774643913e-001
      1.0344350839012567e-001 -1.1511124935068757e+000
      -9.3079647345946759e-002 -3.4650645207310615e-001
      1.5106503906915553e-001 -1.7304778342050883e-001
      -4.0768660666191267e-002 -3.0055062671791349e-001
      2.2675480686465549e-002 -4.8635343519152946e-001
      1.5280758384556525e-001 -1.9562759861539092e-001
      -8.1364260738660418e-002 -3.7444816378896212e-001
      6.0650534740131767e-002 -8.5514548898741438e-002
      -7.9944089279990194e-002 -4.2602117777617643e-001
      -5.9677362863515528e-002 -3.4156281539130778e-001
      4.3849258618929460e-001 -1.6625460412259380e-001
      -4.5245354761924483e-001 -7.8315738958560643e-001
      3.2415529323989861e-002 -1.1418514420131803e-001
      -1.3783874670385718e+000 -2.1705037328005272e-001
      1.3163727282216520e-001 -4.3198608718693871e-001
      -1.2503850181074253e-001 -1.0713370156048778e-001
      -1.3513410236914816e-001 -3.1457409609655335e-001
      -2.7006521830418595e-001 -4.3674853806531556e-002
      -4.8782969330628917e-001 -2.9623207605680635e-001
      6.2140947987184736e-001 -1.9810235127233442e+000
      1.0571919617663199e-002 -7.5637580394925852e-002
      2.0227452056758377e-001 -6.2419934300508059e-002
      -2.8357429198898576e-001 -1.4875001850770941e-001
      8.0916479745950079e-002 1.0009289863738896e-001
      3.8699780973044046e-001 -5.2221211441311122e-001
      1.3442981522970065e-003 -5.6463420169227931e-002
      3.9398575860758145e-001 6.1650298038243989e-001
      1.3152056270448922e-001 -7.6864292574498158e-002
      -5.2293338240911959e-002 4.5213623303062472e-001
      2.4864748041152632e-001 -1.7613290274781168e-001
      7.3461694670306471e-002 -7.1385101353728153e-001
      4.5542109828623924e-002 5.7923706749136805e-001
      4.2666250450993526e-001 -8.0123359372584246e-002
      -6.6903759876741367e-002 4.3135447517786363e-001
      -8.6727504904545338e-002 -1.4122650073972978e-001
      -2.3916125891657319e-001 -1.2616739549196512e-001
      -6.8063872014809090e-001 -2.0839189526085196e-003
      -8.7134403937555310e-002 -8.6630794223255050e-002
      -3.3831455651180853e-001 1.1568736546284868e+000
      -7.3440309222991063e-001 -6.8782114038654651e-001
      3.1269318285110170e-001 -2.5735017306955155e-001
      3.1171924526797956e-001 -1.2195948261880588e-001
      4.0004786065627040e-001 -1.8098639565918601e-001
      -6.3923958687117963e-002 1.6490706430963192e-001
      -1.0649856060865242e+000 -1.7744205502548245e+000
      1.6135088593254887e+000 -5.9998919529744776e-001
      -1.3423941296954842e-001 2.4802251242928058e-001
      -3.4164248818413491e-002 -8.9626123891441767e-001
      -2.5951449685936484e-001 6.0907877253585008e-001
      1.2694295180701332e-001 2.1844355566213791e-001
      1.8031763065325965e-001 -8.8687159898598655e-002
      -7.4051478023313119e-002 1.4147938623188042e-001
      -1.0696205942223116e-001 -2.6589315894697935e-001
      -7.2059392264002722e-002 4.9010862834836816e-001
      2.2045140047403718e-002 1.0016364684268397e-001
      -4.9401190480515930e-002 3.3287360954300974e-002
      8.2033602104719705e-001 -4.1265334628277484e-001
      -1.3533544654560259e-001 1.7681168108700016e+000
      5.2803223052038761e-001 6.0157609068856199e-002
      -7.4022323634531972e-001 -6.8628841795057571e-001
      7.1369723463823642e-001 -2.6472616919693159e-001
      -1.7354258161355304e-001 -6.6178378382840142e-001
      7.5381999678155896e-003 -8.6206863889995447e-002
      -4.4035536762489690e-002 3.5120226911268926e-002
      2.0253776444081883e-001 8.4096449188672673e-001
      9.3318781704667148e-002 -1.3330563800589694e+000
      -2.7765135193153084e-001 -4.9459811921244504e-002
      -1.0242999795362755e-001 5.2942134681761774e-002
      7.0899638403726668e-003 2.1506114380747696e-001
      -4.4689231311649980e-002 -1.1629587921309970e-001
      1.7359351175935518e-002 -3.3213674431126078e-001
      -1.3470487626555432e+000 -5.3296838561644566e-001
      1.8237317460463323e-001 1.5892136554898439e-001
      -3.0545633162531349e-001 3.9337412368672231e-001
      -2.5178563139811028e-001 1.8080467839319120e-001
      -1.0518733907170555e-001 -6.6880912623926717e-002
      -4.4231767745902972e-001 -4.1898827049419129e-001
      1.9982982787298845e-001 -3.3951624473697023e-001
      -7.3073666046163471e-002 -1.3353645070703787e-001
      -6.3967207770602094e-002 -1.6314789860936443e-001
      5.4710419422749408e-002 3.2756495831561133e-001
      1.9106631931019788e-002 1.2428392293084439e-002
      4.5534351377531374e-001 -1.2672929763768279e-001
      7.8959330067607612e-003 -1.2208211930985634e-001
      2.6654607539664738e-001 -3.7383954646732373e-002
      -6.5924761462624049e-001 -3.2910711591453999e-002
      3.1051396685041699e-001 1.3031219178629621e+000
      2.2238425707693560e-001 -8.0003358869066052e-002
      -5.7289503601412897e-002 -2.3202748309397947e-001
      2.8407246264905417e-001 -1.1942979507031228e-001
      -6.0060306696156862e-001 -8.8368270940140312e-002
      1.0329214601108214e+000 1.6748606391883736e-002
      3.0564504268767301e-001 -5.3483673017707101e-001
      7.0069595478116781e-002 -5.4729166336593117e-002
      2.4912459411225057e-001 -8.2642702767640630e-001
      -2.3229016980420555e-001 1.6820819523700223e-001
      -1.0940906782653739e-001 -6.4328611781175660e-002
      -1.5197603490688999e-001 -7.1492855588308168e-001
      8.9245894719438501e-002 2.4343885234759716e-001
      4.0740292987767990e-001 -3.6071090160098074e-001
      -9.6071648548651717e-002 7.7040393258661355e-002
      4.5123812317487966e-001 -5.4716975156257466e-002
      7.4272644801090637e-002 -3.7020874304896295e-001
      -9.2508604617565535e-002 1.3434741072069312e-001
      2.7184689318477423e-001 -4.6880983801490478e-001
      -3.4739446772910965e-003 -2.0404402259756584e+000
      3.7999412697160243e-002 6.0670597312479779e-001
      -1.8931817124782843e-001 -2.7866787600624482e-001
      -6.6463370065566782e-002 4.1604274047261530e-001
      1.5350018255929745e-001 -2.9025166852058526e-001
      -1.2254744496634495e-001 -1.0025792064492009e-001
      7.7615780415414370e-001 4.3213433653212591e-002
      8.1969494149575661e-002 -2.6480339001773340e-001
      -2.9247346737525520e-001 2.1103541259318472e+000
      6.4601563278271924e-003 -1.1091171147117256e+000
      2.7487188077179908e-001 -1.0470420698650974e-001
      -4.0723624463048652e-001 -1.2787496996468065e-001
      1.4212000855625478e-001 -1.2650907175694182e-001
      -3.8144007885416337e-001 1.1538348831824694e+000
      -1.0373187282783760e+000 4.4392920359561211e-001
      1.7162123739575872e+000 -5.0985649186774573e-001
      -1.1928428282869112e+000 1.5691147094621513e-001
      1.5425981052975077e-001 -7.1482801296152872e-003
      5.4410333585616422e-002 2.1200588575361539e+000
      7.9054482763137990e-001 -1.4903274147183283e+000
      -4.7303571111897691e-001 6.7554615183437550e-001
      4.7844829366076112e-002 1.2314449617898668e-001
      5.3564566352339686e-002 -2.6776950262326010e-001
      1.8229727626358583e-001 1.6482455204697635e-001
      9.8729663813165877e-002 3.0752491352931827e-001
      4.9253565855297762e-002 -2.1242441533734213e-001
      -3.9291429364722026e-002 3.3140164952728111e-002
      1.0522207149086860e+000 1.1070799793680405e-001
      -5.1707474073941684e-001 -1.8760189423382964e-001
      1.7229323941750070e+000 6.0332040703020492e-002
      -8.4771111425338663e-002 -2.0948981699315392e-002
      -1.1074249056202137e-001 -5.1438277179926684e-001
      5.0950312217619602e-005 -9.8053794943337401e-003
      -1.0862347176623446e-001 -3.3633225434999786e-001
      4.8805695983491681e-001 1.2015862524210449e-001
      -1.0017936918692616e-001 1.4998315164547543e-001
      -1.1486286381069175e-001 -3.7776705510419201e-001
      1.2025995449871217e-001 2.5941840465319534e-002
      -6.1142274416381502e-002 2.0394766846736190e-001
      -4.0143395184018042e-002 5.3595172276670378e-001
      -9.5664689616526671e-003 1.9956130583315240e-001
      -1.2120909849668700e+000 -4.4121201683800132e-001
      1.3164875165436443e-001 1.2228302396612635e-001
      -3.0316234347043214e-001 1.9375670719751381e-001
      -2.4936372167124776e-001 4.5665492508089200e-001
      -1.1833921659439431e-001 5.2118840435267023e-002
      -4.4127432445393061e-001 -2.6691353060915868e-001
      -2.5046409888266957e-001 4.7759661883118788e-002
      -5.4164998346226201e-003 2.5047108313990268e-001
      -6.8463476957389102e-001 2.0352236300324580e-001
      -3.3514050155041564e-001 9.4882651114246621e-003
      3.8836179973978535e-001 1.2840851684669488e-001
      5.4143550335167587e-002 -3.4444621290611641e-002
      2.4282379203980964e-002 1.1960843080313002e-001
      5.2794126030165624e-002 2.0270583687669003e-001
      -1.6531150765057281e-001 -1.0741906985038843e-002
      3.4309312493031713e-001 1.6040506523426057e-001
      4.5561363698781741e-002 -3.1495859785458061e-002
      -2.2102649048799824e-002 -8.4142406698742470e-002
      -7.9596463801445486e-002 9.0042533437008493e-002
      -1.7876513091670779e-001 -1.2141213638260336e-001
      1.6262163563346621e-001 3.0077524698110919e-001
      1.2867756136012903e-001 -1.0110016060128404e-001
      8.0313021447353403e-002 -1.1319225772161164e-001
      -4.9148802038189138e-001 3.3575438974780369e-001
      -1.8411031254861895e-001 2.2023677284443849e-001
      -6.2161883805332357e-002 -2.0405393920639101e-001
      -3.3894955935310389e-001 1.8298403028515740e-002
      2.9622067954685943e-001 1.1614976718363720e-001
      -1.6613998158373475e-001 -1.4375705961743149e-001
      4.7430447379561796e-001 3.5305889181016759e-001
      -1.2222490605903437e-001 -1.0290478834630658e-001
      1.4435941939899954e-001 -2.6563663382531216e-001
      -7.5635013883791541e-002 3.4379086578591567e-001
      2.7069121505106281e-001 -1.7855711808251479e-001
      2.8008928758620163e-003 -4.0973183142136599e-001
      1.5266943578597719e-001 2.5799733237563446e-002
      -2.0384389004150988e-001 -9.9946619135494214e-002
      -7.9604948199474876e-002 1.8675284356473354e-001
      4.4127291268265234e-001 -3.0163681739584969e-001
      -8.5789864347428496e-002 -8.5553067908915134e-002
      1.6790165190333514e-001 1.5450991667611735e-001
      8.6643100489133366e-003 1.1519479096629603e-001
      -6.3654471258972700e-001 2.0573502970304043e+000
      1.8381594268673201e-001 -1.7872444440497859e+000
      2.7726552509024360e-001 -1.2270658298368010e-001
      9.9603374826793001e-001 -1.1287861879685970e-001
      2.5104529296845063e-001 1.8374117887966593e-001
      -2.6310617113310153e+000 2.1152476208490945e+000
      -4.0202669582911033e-001 -1.1819786588447905e+000
      1.1578775375843715e+000 -3.5223218822547608e-001
      1.2133370065212430e-001 6.9433764441123313e-002
      -3.1066640029704296e-001 -1.5952318134555304e-001
      4.2282920020233983e-001 2.6798794041106166e-001
      -1.8327584137582148e-002 1.7528377033932271e-001
      5.9741911039099338e-001 -2.5766203932568937e-002
      3.2005756630105076e-001 6.1548308964908420e-002
      1.3020278523101692e-001 -2.1922266318025282e-001
      -7.6255878256201851e-002 3.2501302757200453e-003
      -4.5804140914705216e-001 4.8802520279684430e-002
      -3.6250656460711106e-001 8.9032906379748721e-003
      4.4223376974255907e-002 -1.0130862896772832e+000
      3.3424544715679749e-001 3.7657235932857042e-001
      3.8399231077198315e-001 -7.7260640189549634e-001
      8.5389196545606977e-002 1.9979134460144662e-001
      -1.1201793587781117e-001 6.2627611090426238e-001
      -1.6862040050771632e-001 -3.6854989164568447e-001
      -7.8595113798012206e-002 -1.7145750826454301e-001
      2.9571656916041354e-003 -7.2985664690383856e-001
      9.2513316056101336e-001 4.1336987989380868e-002
      1.9905211950308033e-001 1.6230141940142884e+000
      -1.7874791814775301e-001 -2.8544928193027702e-001
      1.1020024533818863e-001 5.6354213870279954e-003
      -3.0520868437373261e-001 7.9886897707693930e-002
      -5.9590854196149692e-002 1.2256976358754253e-001
      -2.8699023898937817e-002 2.6775822912747826e-001
      -6.2024073645252698e-001 -3.0933818271983399e-001
      1.9055761999972651e-001 1.6345639933237763e-001
      -3.6364538010667385e-001 1.5910056503190331e-001
      -7.2867052812913904e-002 4.8117416424586162e-001
      -1.1776440353428566e-001 5.2858098094252785e-002
      8.8362805422315865e-002 1.3971035482358291e-001
      2.1320834119598162e-002 9.0926004340855293e-001
      1.4515389545968496e-001 2.1964732521001779e-001
      -2.4501265711862272e-001 2.1101167797242573e-001
      -1.9324267825308988e-001 4.5497145079752180e-002
      3.2345565947831201e-001 1.7823944525821150e-001
      -9.1622545138883363e-003 -3.5052991038438251e-002
      -1.4356355865616181e-002 1.3456215859297177e-001
      1.4340890266500617e-001 3.0477474491345929e-001
      -2.7280707350019956e-001 -8.8208948172703375e-002
      1.6644866248009008e-001 1.1860473029372240e-001
      -4.2720378954274962e-001 -3.7647817288003044e-001
      2.2284034134187564e-001 -8.3697850716429156e-002
      -1.7144888536059560e-001 2.7863058325666373e-001
      -1.8350924063102472e-001 -5.5107024351993716e-002
      -5.4792102118249419e-002 8.9077931136047117e-001
      -1.0742400584475222e-001 2.1102381606030662e-001
      8.9368792314851939e-002 -8.9240048336298616e-002
      -4.6059199908545595e-001 2.1094227374977301e-001
      8.4430878116354899e-003 5.0879156561799864e-003
      -3.9124723488380538e-002 2.6661450684434845e-001
      3.2371136887519997e-001 1.9070476980272100e-001
      1.2362735170700249e-001 3.8991324208240925e-002
      1.9412101182537677e-002 1.1016554470364028e-001
      3.1688871771431332e-001 1.4633057361843035e-001
      -2.0685050095076477e-001 -1.3864329180126103e-001
      -3.3050959956189237e-002 -2.4211309027218247e-001
      3.2316158619078106e-001 1.1691389130793936e-001
      1.0663657870253435e-001 -1.8467057992757696e-001
      2.0366496749552046e-001 -1.6750261334281821e-001
      -1.4425398020298219e-002 -2.3184358391616852e-001
      -2.0361371155005531e-001 5.1283490556638868e-002
      -6.9265479965078799e-002 7.4251327563821079e-002
      3.6548082364631512e-001 -2.9933336691968288e-001
      -7.6433409315234138e-002 -2.8414424355369472e-001
      -2.0377333841672299e-001 7.1207619379244691e-002
      1.7723200140604647e-002 1.0915085261008312e-001
      -1.0039665832297184e+000 2.0679237295790722e+000
      2.0736810403877259e-002 -1.7900041378711915e+000
      4.6810060754603100e-001 -1.1443649445279995e-001
      1.3113204732385186e+000 -1.2058844507807458e-001
      -2.1518214761503788e-002 2.0510589233699980e-001
      -1.3989258680447825e+000 6.0304462360917166e-001
      -1.0408757985581425e+000 -1.7316686862791788e+000
      1.1590172772426850e+000 -5.3932839396752363e-001
      -3.1581241032243303e+000 1.3908480720848726e-001
      -6.9893338579955777e-002 -2.8459708213900770e-001
      7.6357023840539912e-003 2.1237865991140406e+000
      3.4450558600497277e-001 -1.2802026909986521e+000
      9.9145937896937764e-001 1.3316201904473448e+000
      -1.1065573079620758e-001 1.7123702735329777e-002
      9.8872042759465359e-002 -3.8245275590124743e-002
      -6.8619788336521756e-002 2.1020720853825391e-003
      6.4729405852810706e-001 1.8346648135719987e-001
      -1.5588443147612938e-001 1.0406504320763130e-001
      1.2369895903247492e-001 3.6280685400763413e-001
      1.8037440606062810e-001 -3.1972037802252468e-002
      -8.7796052327801388e-001 -8.0537949776258544e-001
      -1.0042344943840782e+000 -3.5395438897816177e-002
      -7.0580017168941445e-001 -3.4028903872049382e-001
      -3.9421626963574546e-001 9.3035962106242653e-002
      -1.2066422481584041e-001 -1.0123721660671672e-001
      1.1194635274211764e-002 -6.8940407071542154e-001
      9.2195402235953106e-001 5.3412238367721271e-002
      1.9805962722314568e-001 2.1625186543575312e-001
      1.7249513684371129e-001 1.2054486326860700e-001
      1.6905167565316864e-001 2.8928998687087960e-002
      3.5419738345885028e-002 -2.7114267056149700e-002
      1.6466093284032882e-001 5.6427512740324884e-002
      1.5727685079039699e-001 2.4199396686941319e-001
      -2.6548881283302750e-001 -1.1635917498433394e-001
      1.9126886048532252e-001 5.4700662918388265e-001
      3.8923115075312598e-002 2.3567038611381724e-001
      -2.1790157953372805e-002 2.6844999085259369e-001
      2.2675608042302311e-002 5.2933663318528008e-002
      -9.5986942885285115e-002 1.3680612002187351e-001
      7.7493012171721526e-002 1.2783652558780242e-001
      -1.7630185289827560e-001 -7.5896770223692525e-002
      2.4640271520763185e-001 1.0572575683233362e-001
      -2.9310378788229208e-001 -6.6745810223045066e-001
      2.5259621978863828e-001 2.0934002211558012e-001
      1.2113923855080129e-001 3.5734478297813449e-001
      -2.4682870847588106e-001 -4.2416791881753008e-001
      3.9162418854017067e-001 4.1689837415609715e-001
      -1.1275549975925768e-002 -3.6652523320454836e-002
      1.3336855793687172e-001 5.4925185662105513e-001
      -4.1349031021580324e-001 1.9600784262169779e-002
      5.8640287660335098e-002 -1.7928616850562701e-001
      -1.0388695664507555e-001 3.0073044476890631e-001
      -1.0121800023746241e-002 3.6661337031885080e-002
      -7.4658878654432437e-002 -3.4880398992009606e-002
      -1.8877443809662611e-001 2.2487598667335126e-001
      8.7767622588319452e-002 1.4009815126731540e-001
      -3.5362908777439145e-001 7.7885167726712257e-001
      3.4353031670581791e-002 -8.0382226664558760e-003
      2.0742467337043680e-001 1.2505034410263202e-001
      -1.2102076934533937e-001 6.7126742120353813e-002
      8.2264383302051269e-002 3.2094555492718480e-001
      -8.5354682127324843e-001 2.1727012716118591e-001
      3.6383097329722858e-001 4.7480901337977950e-002
      -1.6297804946857392e-001 -1.0932220233434778e-001
      -1.8484958637243878e-001 6.4822130176216436e-002
      3.2169000612759580e-001 3.7406711698596336e-002
      2.0225903411577437e-001 -3.7385864536080649e-001
      7.1089623932333168e-001 6.1661554661515593e-002
      -2.9725099482583334e-001 -5.9543786139776345e-001
      -2.5635011334118130e-001 -9.3476210624797967e-002
      2.6102839968148622e-001 3.3599944387428769e-002
      2.7849958923295420e-001 -1.8705907967265609e-001
      7.9676208468703644e-002 2.1066763972491281e-001
      -9.3282982027029815e-001 6.4834406776792128e-002
      4.9275673903995440e-002 -3.1825262178518554e-001
      -4.1148839819544120e-001 2.0590932941995570e+000
      4.0024063942547977e-001 -1.4195674887022405e+000
      1.6655625548881687e+000 1.8315736838414656e-002
      6.0061973349327813e-001 -1.2246624487851537e-001
      -8.7897293930523021e-002 -1.0514253501054036e-002
      -7.3467986227747994e-001 2.1168917382309274e+000
      -4.6176149463295085e-001 -1.0861598258516576e+000
      1.7009483267025736e+000 -3.4687933133029453e-001
      -2.0572441666994328e+000 9.8868100160755340e-002
      2.1506362716042429e-001 1.3044363545234388e+000
      2.3646783077897902e+000 -1.3117967011466458e-001
      2.8507017715660325e-002 -1.5595302670249500e+000
      2.1518492208501522e-001 8.4943450017680866e-001
      2.4108303858346741e-001 2.5999697896337368e-002
      -5.4449176918785092e-001 -3.6213932160570811e-001
      2.1187253227698891e-002 -3.3668610504841660e-003
      4.2121533650107368e-001 4.8435984039605542e-002
      -2.4608149994782058e-001 8.2960674097350778e-002
      5.4056444960527007e-002 -7.1724773580641132e-001
      9.4994369294761882e-001 1.3298339103943166e-002
      2.4019219882308018e+000 1.5414873298728045e-002
      -1.4632512583436813e-002 8.5356115901194823e-002
      1.0127832467348457e+000 -1.4484567258764985e-001
      -2.6659051025858044e-001 9.1375321302017531e-002
      -2.7001761461891216e-001 -1.1911062181755783e-001
      -2.4703523144189887e-001 -6.4015855703521518e-001
      -2.6269182107277000e-001 4.7451092640266312e-001
      2.5474932216185131e-001 -2.1470296314605942e-002
      -8.7467730399404447e-002 1.7508762619957266e-001
      -1.8493626879566231e-002 -7.6859285346850825e-002
      3.2326416586528267e-001 -2.1110453151212272e-001
      5.4863515856298672e-002 -2.2924997849003526e-001
      4.5158004449823319e-002 4.5342100488676498e-002
      -2.5119966083704520e-001 -4.8045819454906802e-001
      3.9871561243268178e-001 4.7490966708592111e-002
      -1.7186410987999109e-001 1.3400148485677246e-002
      -2.3934079575613127e-002 1.8981967149705326e-001
      2.8678920103871196e-002 1.1809195094784833e-001
      3.5371187025052475e-001 9.9431015635938508e-002
      7.3606298666924183e-002 3.5786397648829044e-001
      -1.3600117708341605e-001 1.3585261325554809e-001
      1.5842506599514727e-001 1.8553610858962866e-001
      7.4449503401566336e-002 -4.3771296747813049e-002
      4.7774312010530096e-001 1.2993999585710847e-001
      -2.1200364525173692e-002 4.5327862615841946e-001
      -7.0794807351243316e-001 -6.2049901786671670e-002
      2.3496511211662863e-001 6.3360108630533218e-001
      -5.5553519195753576e-001 2.1783130819984053e-001
      -1.3059283952474993e-001 2.4704232577680504e-001
      -8.2593153910871200e-002 -2.2824844090672595e-002
      5.8448729156744927e-002 -9.6799314279300358e-002
      1.0069450793805634e-001 2.8684269083292979e-001
      -1.3891765998481895e-001 1.0450647611770140e-002
      -4.7936252201560017e-002 -5.4845478034930603e-002
      -7.9406692316057417e-002 2.4100090474828462e-001
      9.4448112662670558e-002 1.0631159046918300e-002
      -1.7738580636214996e-001 3.1613339095948373e-001
      2.5453285721073887e-002 -1.8130525860194754e-001
      -5.6487641826893120e-001 -9.8547607883539140e-002
      -6.0811819054342681e-003 2.6790082130974069e-001
      2.1642894513069574e-001 1.8959590818389568e-001
      1.0028466015324690e-001 -2.9237838214283512e-001
      3.7335472753291876e-001 4.1855824333574682e-002
      -3.3428579720570251e-001 -3.5171390658162277e-001
      -5.8639689069524514e-001 1.1137310834099332e-001
      2.4309913762995813e-001 3.2937431574980017e-004
      1.8419984745574766e-001 -1.6504402556799738e-001
      9.5937546192118017e-001 2.3377386451728061e-002
      -6.3642710957957316e-001 -6.5437908184440852e-001
      -3.6033991911874097e-001 3.0572256169659595e-001
      4.1524969378114068e-001 -7.0737890648889179e-001
      2.1669287347730101e-001 -4.4042960142828450e-002
      3.3492077401217074e-001 -3.7789880442010329e-002
      4.1107507996243670e-001 6.0714455285544498e-002
      4.5136643851825399e-002 -2.0945319654944097e-001
      5.9817251836860930e-002 2.1213294692294471e+000
      1.3640138950497999e-001 -4.0181572167169854e-001
      1.6320007428422232e+000 -1.9758280842609124e-002
      1.6721566370640098e-001 6.5377325303686409e-002
      -1.3033613568677960e-001 -7.2031777136160680e-001
      1.0497196879897398e-001 9.2505226004109242e-001
      1.9547519622201737e-001 3.3854667461823607e-001
      1.6361219758835961e+000 1.1414479973176159e-001
      -2.1266214559641611e-001 -4.2061295662896364e-001
      3.6205156394326865e-002 -8.8912240462231465e-002
      1.6891620713234490e-001 2.1207967193008952e+000
      1.2358986952613866e+000 6.7021682966937557e-002
      1.6318640454220212e+000 1.0444080598237490e-001
      5.6401258218896480e-002 -1.7938276362457667e-001
      -1.2637456238756914e-001 2.5521478667639930e-001
      1.2662074263758147e-001 3.6104284137341081e-001
      -1.9051914885644472e-003 -4.8180149759521723e-001
      7.4092493203087112e-002 3.5369880102610454e-002
      -2.0205790839278073e-001 2.2083586256502632e+000
      3.0813767170963713e-001 -1.9271959117063983e-001
      -3.1124570686212943e-001 -8.6082487916506678e-001
      3.4870920556087054e-001 -3.4715357052705231e-002
      -1.2852613853319914e+000 4.3714802314768764e-001
      -2.6260071598223905e-001 -1.5904397652806743e-001
      -2.4931785690743694e-001 7.2978953401107743e-002
      -4.6803415909385010e-001 -6.7684457932859743e-001
      -6.1905678431631905e-001 2.6562218334230608e-001
      7.9562280658770113e-001 -8.3404589683934871e-001
      1.8782247532087590e-001 -3.6167555990702038e-001
      1.7231889232143408e-001 1.7879610849467717e-001
      3.2244802500159991e-001 -7.1045726255913166e-001
      -1.3070578596726437e-001 -5.0142250852264125e-001
      8.5912511975147654e-002 -6.5213995584647341e-002
      1.2385895448504564e-001 1.4178102574257978e-001
      -1.4080235267439170e-001 1.9538633748045997e-001
      1.0346894283740808e+000 -2.4294963747004630e-001
      -3.9985562826776638e-001 -4.9947638459340825e-003
      -4.4849587428529139e-002 3.7194170162223185e-002
      2.5001016287960759e-001 -1.2111833459941007e-001
      1.3347073069863394e-001 -5.3809161820410921e-002
      1.2909644008777243e-001 6.0244461559567988e-002
      -5.6100035945508442e-002 3.6424961379803535e-002
      5.3940627596583489e-002 -6.5607741000752728e-002
      2.0962508871611246e-002 -1.7218816224153161e-001
      5.7196086376718400e-002 -4.2515541745570117e-002
      3.2184489118668258e-001 1.8248588855714665e-001
      1.4356090096615465e-001 3.7084306042718465e-002
      1.2509145352786929e-002 -2.5319952441477556e-001
      3.7869590952154802e-001 -3.9459983284050049e-001
      -9.7898383929981195e-002 8.9508906875428695e-001
      6.2992989362522855e-001 3.9116736962659926e-001
      -3.2064735335511940e-001 -8.1660457807077225e-001
      -8.2384172888906995e-002 -5.6694714391396939e-001
      4.7587224528039601e-001 -2.6136665322151359e-001
      -1.4186374618467701e-001 4.7654067555009949e-001
      2.1248225304670398e-001 1.8278594158347225e-001
      4.3556107567384275e-002 -1.6058638418259421e+000
      1.3640052888939497e-001 -1.8774938378436118e-001
      -6.6244587496364651e-002 4.0354007364542498e-002
      1.3850661469882605e-001 4.1255663395354725e-001
      2.8088377087997352e-001 2.1076407420752150e-002
      -1.8626430220086662e-001 6.1029487861943392e-002
      6.9301558099143978e-001 -7.9173892367645535e-002
      1.1331513475411947e-001 5.7015773950950581e-002
      1.5510358055803034e-001 2.6113900148739644e-001
      3.5254484447071271e-001 -6.6013701122285287e-002
      -3.4118412687899652e-001 4.5748594948991105e-002
      2.0183727711589053e-001 -1.4462033479822637e-002
      -3.3604790396540790e-001 3.3331899167399137e-001
      -3.8228245481737593e-003 -1.8236701299083366e-001
      4.7215822606403363e-001 -1.1802101713984001e-001
      -2.3336369367979307e-001 2.9750520789380203e-001
      -1.0035217125079193e-002 -5.8850969151738441e-003
      8.1009071486574113e-001 1.5234320097959023e-001
      -7.7003499108500365e-002 -1.3203238215685869e+000
      2.3734832778249432e-001 2.1049223589097812e+000
      9.2225837906432184e-002 2.3854055153548884e-001
      1.6386810741472295e+000 -6.1959821978398828e-004
      1.0022389529164066e+000 -1.2949302490174600e-002
      2.0465452059851200e-001 -2.7541743149982834e-001
      -2.3573351995744844e-003 1.4313100082783363e+000
      -9.1596634887174222e-001 2.1265166567054062e-002
      1.6336398448211817e+000 -1.1794333357917540e-001
      3.3001669738798295e-001 1.9502246903563403e-001
      6.9573127290938702e-002 -3.8972471118261798e-001
      1.8654587149115368e-001 5.3236557328143752e-001
      -2.0994919767399806e-001 4.4080214659590572e-001
      1.6639697628003702e+000 5.1831007288852433e-002
      -3.5180993931992882e-001 8.7044504807914785e-002
      6.4605251950147324e-001 -7.7662394311671282e-002
      -8.8273370589261491e-002 2.2003375469311190e-001
      -1.5291916484199500e-001 -1.9066676103547689e-002
      -1.7151034201186303e-002 1.3483708540707134e-001
      -3.0173092965589010e-001 6.7455961828657773e-001
      7.3526953424956765e-001 -1.6452124700929283e-001
      -1.3049799455401329e-004 2.0218234259705712e+000
      6.5546260631844000e-001 -1.9959368760531443e-001
      1.9565570750992584e-001 -1.6327859834415184e-001
      -3.9241863846182717e-001 -1.0016173191076395e-001
      -1.1425245045313366e-001 1.0976847888359040e-001
      -3.8574212483797449e-001 -1.5810540037970444e-001
      -6.8749810418861101e-001 1.1320355115194784e-001
      7.9049887079948977e-001 -6.2216256233061673e-001
      5.9826919341111603e-002 9.2753113780874905e-002
      1.5954364781218623e-002 1.0546156354315060e-001
      1.6957399685432839e-001 -7.3854761977026551e-001
      3.1660583567318878e-002 1.8233228828666864e-001
      5.5076282884528700e-004 -2.3686820859541527e-001
      -2.4532828416842725e-001 7.6077592608558717e-002
      9.8740759285861887e-002 5.3699026706443487e-001
      3.2347112580668136e-002 -7.8128059011927198e-001
      -4.5810391092495634e-001 -1.1084249407346659e-003
      -5.5254251312364722e-001 -2.0964622064109639e-001
      -2.1402219822764218e-001 3.7164313885550589e-002
      -2.3995850201915556e-002 2.4064892069732742e+000
      -5.6568936529933826e-002 -2.6630862726741839e-001
      4.6410732122566481e-002 -7.0279252073098264e-001
      -5.0284642286583514e-001 -1.3272459896710056e+000
      8.8836182072720329e-002 -2.1247696578009953e-001
      -3.5920427004986634e-002 2.3986130507479519e-001
      2.4733793542729327e-001 1.8579170091207889e-001
      2.0338524674219916e-001 -1.0810224569711110e-002
      1.0255679378431196e-001 -7.5314646816513217e-002
      8.0699919558393521e-002 -3.6671788408510564e-001
      -3.0591625937447652e-002 -1.0128571792544853e-001
      2.4058364702744145e-001 2.4502499238752740e-001
      2.1166518628432385e-001 -8.7773442029271309e-001
      -2.0183075804596334e-001 1.7246466480919728e-001
      3.3060599384517203e-001 1.4530825556333601e-001
      9.9156441521459360e-002 7.1902140857569463e-002
      3.3113620844263641e-002 4.4842620493731755e-001
      1.1290597002106388e-001 -2.8234180975471762e-001
      -6.6016321790253490e-002 2.0988874345508260e-001
      3.1938916659847688e-001 2.4621890157764195e-001
      1.5857871689378109e-001 4.8369910032398156e-001
      3.2488055268716304e-001 4.2350035712014122e-002
      -1.0762732614330821e-001 -3.0909354888878077e-001
      3.6229256818422684e-001 -6.2081621982265286e-002
      4.0964948190140471e-001 2.0319104658810822e-001
      1.8115084437379758e-001 1.8856688779205877e-001
      8.0609906089412353e-001 -3.6642818855783556e-002
      3.5629737938358164e-002 6.8476620658996359e-002
      -7.2589807792038654e-003 3.9285014276359571e-003
      1.0572896547753576e-001 5.6264201957170107e-002
      1.1925013426485132e-001 -2.2061880627159036e-001
      4.9276532604190221e-001 -1.2005581650096980e-001
      -3.9766961099419101e-002 4.8130634024548308e-001
      -2.7930382517475268e-002 4.4010390669446559e-001
      2.2188441079316990e+000 3.7942604851393689e-002
      3.0041033535033368e-001 -9.2156683007836859e-001
      2.4483377765019327e-003 4.4928455778737469e-001
      6.6565306205079083e-002 8.1658431521593622e-001
      1.6325546177275234e+000 -5.6542603889772267e-003
      1.1963771934296841e+000 6.6280153771971412e-002
      1.4627679372933303e-001 -2.8190293938227817e-001
      1.1958051758828109e-001 3.7287026368860371e-001
      -6.8861593727530068e-001 1.1317593049054561e-001
      1.6392283524927367e+000 -1.2849120800787633e-001
      -3.3533502774559951e-002 1.0437070294027492e-001
      1.6111385541324336e-001 -3.5780143584384450e-001
      1.7342532244973713e-001 1.2953150017740196e+000
      2.7323889895199627e-001 6.3369748022921601e-001
      1.6320023783400652e+000 2.4139895111709517e-001
      -4.0624727910692151e+000 1.4775388676495080e+000
      -1.0059967572697370e+000 -3.6675297912302990e-001
      3.8031025253700639e+000 -2.1192632037175856e+000
      2.1342529197935294e+000 1.7719431757749466e+000
      -1.6349409167570810e+000 3.3657502305228210e-001</_>
    <_>
      -4.6995112082752738e-001 -2.4343532846091909e-001
      3.8728205293697622e+000 2.3543870774854962e+000
      -3.2236787055061039e-001 5.6371933852948009e-001
      -9.8634126400596511e-001 3.1248791632729489e+000
      -6.3366219891798681e-001 1.2077759622951687e+000
      -8.4943401323981926e-001 -6.0607605706773882e-001
      -7.7720539519581827e-002 -8.0977578493584401e-001
      -2.6667861351646049e-001 7.3798110229730624e-002
      -2.9002442264982997e-001 4.6370686519111226e-001
      -3.0135156024615153e-002 -4.4812796655835335e-001
      -5.8759794411587274e-001 -3.6619119917533810e-001
      -2.6200932636294066e-001 8.0172667732871372e-001
      -1.3364110289978237e+000 1.2156095958735440e+000
      -2.8510876968007904e-002 -9.1814275281308722e-001
      -1.0881789225598011e+000 1.2450707098376159e+000
      -7.1807043989627917e-001 5.7650008756697713e-001
      4.8542772186882499e-001 -2.2848133242057771e+000
      7.5458238758240248e-001 2.2630916811437856e+000
      -1.9570640682956519e+000 -3.0562552933955378e-001
      -2.2987867373666777e+000 1.8104895781507127e+000
      -1.4794757423458240e+000 -3.1036605632697573e-001
      1.0247678573756788e-001 3.3167548542873487e-001
      8.4153779029241715e-001 -1.4892790902863600e+000
      -2.6976029289404049e+000 8.7864645968589519e-002
      8.5005009147391852e-001 3.8851358919404239e-001
      -3.0565644699187409e-002 3.8819712850471910e-001
      5.0402261428461159e-002 -6.8118272551964398e-001
      -4.6212540942611474e-001 4.9923517246020804e-001
      5.7697067921956557e-001 1.5833019641754642e-001
      1.0206653440176423e+000 -2.0061760199535650e-001
      1.1675598066522341e+000 -1.5407040480501871e-001
      2.9463537596246114e+000 -7.4385162023055296e-001
      1.2086349373614544e+000 -1.2822530761516686e+000
      -1.1806571865127422e+000 -6.7579581964929525e-001
      1.4378720291048412e+000 2.8139395206494568e+000
      7.8615518354037794e-001 -2.2227692316495120e+000
      2.2824025205462123e-001 3.0486857832257741e-001
      -2.3636785568170375e+000 7.2849320194914546e-001
      9.1621529092809750e-001 -1.9507717376333022e-001
      9.2294056344937658e-001 -1.1199515512104732e+000
      1.2777638475063664e+000 1.7852911646299690e+000
      1.1664082588363995e+000 -1.1963730172808493e+000
      -1.1178735764076193e+000 -1.4869173054760947e+000
      2.4236091739610344e+000 -1.6276819149173360e+000
      -2.0932227730197286e+000 -1.2313506035418667e+000
      7.9334489272755671e-001 1.9089591955616050e+000
      2.5063372340722556e+000 1.7744170912801183e+000
      2.7619955298708612e+000 -5.8708775517111189e-001
      4.3679736608894804e-001 -3.3347608811577073e-001
      -1.6141638734329453e+000 -9.6349868705659247e-001
      1.7835074912863003e+000 1.0103739500798616e+000
      1.6868350460868733e+000 7.6899758105727223e-001
      -3.5284637429665305e-001 -8.0899566612238250e-001
      1.6804130441051788e+000 7.8948342185167997e-001
      8.2336197660568444e-001 -6.2282747059639443e-001
      -1.0713658202368714e+000 -8.9235887012644211e-001
      -1.0633675663201012e+000 -5.0265118068493242e-001
      5.9243352490715528e-001 -1.6814997356840418e+000
      8.7310685378097186e-001 8.3848734954944770e-001
      -1.2214411150620368e+000 1.7683598094422424e+000
      -4.4165417528228457e-001 -2.6231186955522112e+000
      -3.6017056073369435e-003 4.0406305166087936e-001
      -3.1266132781092881e-001 -1.2646267312398001e+000
      2.8890711040967032e-001 -3.1804627378529329e+000
      -5.9085917378386787e-001 -8.6290702445604950e-001
      1.8399936127631819e-001 1.1610563770054698e+000
      5.3786501767663331e-001 -3.5434163879518219e+000
      1.3533215605771542e+000 3.1510182832147915e-001
      -4.9083331161723937e-001 7.8627713176764577e-002
      3.2577214276281269e-001 7.2777210267525971e-001
      -4.1248505191073807e-002 -1.6471916709672159e+000
      5.4564116012353236e-001 1.8088723093560752e-001
      -1.0134703293648510e+000 2.1894000884889175e+000
      -2.0274957102660061e+000 1.3431953136889465e+000
      -1.7499247757495751e+000 -1.1229514550363998e-001
      3.2999030016676243e+000 -4.9896584295805640e-001
      6.2621735788716848e-001 1.7708260119221886e+000
      -3.7791854709277423e-001 -6.3349150896662287e-001
      1.3329763655125587e-001 -5.6221993977197748e-001
      -1.6029753948309503e-001 7.7638086187142608e-001
      -3.3990304336263583e-001 1.1964728348567781e+000
      4.2747703286463673e-001 -3.9652659337187623e-001
      2.2942622651061981e+000 -1.2037915444825031e-001
      3.6475388947969889e-001 -1.5987173674609285e+000
      -5.7767288670298074e-002 2.5014200361504163e-001
      -1.3523672056122531e+000 -1.6562163725420537e-002
      -5.9873590661878542e-002 -6.3256521353861650e-001
      4.0696695211318960e-002 -4.4568489495208596e-001
      -3.5318164696185878e-001 -2.2128466944112501e-001
      -2.9829620058971684e-001 3.6067842059782124e-001
      -6.8773340224497118e-002 3.7172446294744416e-001
      -7.3389989918044185e-001 4.4769471840104852e-001
      4.6165876525676269e-001 2.3486071662304070e-001
      1.6830166367890054e+000 -1.4558388942098063e-001
      2.2642490052503303e-001 2.5866849425787813e-001
      1.3725644187694690e-002 -1.3421294677297633e+000
      -2.1649974421020572e+000 -3.5634218809211102e+000
      2.1877017465990728e-001 1.4230008566941637e+000
      7.1747793441480900e-001 -5.6206827693827943e-001
      -2.0791452921304407e+000 -3.5743413714635339e-002
      -9.8693210422860611e-001 3.1530168617178428e-001
      -1.3016189294332978e+000 -1.1833563638153038e-001
      1.2195563106703433e+000 -4.4326979568725949e-001
      1.4398646197005340e+000 7.7960366857601981e-001
      1.0651858702492718e+000 6.8857582635001302e-001
      1.4669044770693753e+000 -3.2393015276297357e+000
      1.2143915809787413e+000 -3.8927842426872383e-001
      3.0321984689830694e-001 -1.0105189938867907e+000
      -4.1496682891940118e-001 9.4085543232545266e-001
      -7.7065195426298927e-001 -2.5134047821464862e+000
      -1.8750150251426203e+000 1.5486302248899604e+000
      -8.9372545098825418e-002 4.3830069135335459e-001
      -1.2367998877081563e+000 1.2205361529943550e+000
      1.5619863863511254e+000 -7.1751318899100150e-002
      -2.4641945743242224e+000 1.1964099093251077e+000
      1.2371781791389102e-002 4.6033280229341672e-001
      6.8163456740352202e-001 -6.1458686056540202e-001
      1.9505287670873623e+000 9.1711863171552066e-001
      1.9216300340009806e-001 1.0011419788139140e+000
      4.3084327964269570e-001 1.1322097037365004e+000
      -1.5575846103048179e+000 -5.1532909476896138e-001
      4.1274859259730146e-001 -4.3783165737251944e-001
      3.2269633898167713e+000 2.3040729616892812e+000
      1.8420089796464465e+000 -8.1841051915765495e-001
      -6.8389872919644379e-001 -8.2105160464368654e-001
      -4.7735310006400644e-001 1.3151543449514874e-001
      -2.1066894547524617e-001 6.3487892278012170e-001
      -1.8217391070279272e+000 -5.4568296375535053e-001
      -1.8016435476277348e-001 -7.8964858483181327e-002
      -6.5444563805385131e-002 4.5623042402318686e-001
      2.0093086191728711e+000 -1.4170961433687723e-001
      -8.2326257236507772e-001 2.0275020581559198e+000
      -2.6551187520182601e-001 -7.0675078925279522e-001
      1.0011963306011012e-001 -2.6628022072385293e-001
      -5.1916477083109880e-001 2.4823462153028519e-001
      8.6739086841478852e-003 7.2011187964636111e-002
      8.7794390727557375e-002 1.0600574557241811e+000
      9.8942548433605659e-001 -1.2260656392930205e+000
      -1.9375687764738649e+000 9.4540988031993267e-001
      1.8288812295994303e+000 -6.8216881685549657e-001
      -2.1282432415837458e+000 1.1094002806316585e+000
      -1.9684254544591795e+000 2.0031967226137906e+000
      5.2646821621370399e-001 -1.5628852334889904e+000
      8.3990974213918701e-001 -7.0681213443035729e-001
      9.8236756237476419e-001 -5.3845575004800594e-001
      -6.2317468706503121e-001 1.2009208376695015e+000
      6.5604125499806210e-001 1.9351760661780533e+000
      1.2557329334048060e+000 3.8072906590211508e-001
      -1.7368398316260731e+000 -1.1845178480350720e+000
      -1.8377362558225723e+000 -9.2999905638420144e-001
      -4.4763674325702070e+000 -6.7968027512725824e+000
      -5.9082873046715720e+000 -4.4074780873134367e+000
      -6.2812662580189897e+000 -5.7915950219540520e+000
      -7.5093703581811910e+000 -6.9739435517109856e+000
      -5.8351576507164520e+000 -5.1297762106495863e+000
      -5.8875397155702345e+000 -5.1348403092759431e+000
